{"learner":{"attributes":{"scikit_learn":"{\"_estimator_type\": \"classifier\"}"},"feature_names":["male","age","currentSmoker","cigsPerDay","BPMeds","diabetes","totChol","sysBP","diaBP","BMI","heartRate","glucose"],"feature_types":["int","int","int","float","float","int","float","float","float","float","float","float"],"gradient_booster":{"model":{"cats":{"enc":[],"feature_segments":[],"sorted_idx":[]},"gbtree_model_param":{"num_parallel_tree":"1","num_trees":"100"},"iteration_indptr":[0,1,2,3,4,5,6,7,8,9,10,11,12,13,14,15,16,17,18,19,20,21,22,23,24,25,26,27,28,29,30,31,32,33,34,35,36,37,38,39,40,41,42,43,44,45,46,47,48,49,50,51,52,53,54,55,56,57,58,59,60,61,62,63,64,65,66,67,68,69,70,71,72,73,74,75,76,77,78,79,80,81,82,83,84,85,86,87,88,89,90,91,92,93,94,95,96,97,98,99,100],"tree_info":[0,0,0,0,0,0,0,0,0,0,0,0,0,0,0,0,0,0,0,0,0,0,0,0,0,0,0,0,0,0,0,0,0,0,0,0,0,0,0,0,0,0,0,0,0,0,0,0,0,0,0,0,0,0,0,0,0,0,0,0,0,0,0,0,0,0,0,0,0,0,0,0,0,0,0,0,0,0,0,0,0,0,0,0,0,0,0,0,0,0,0,0,0,0,0,0,0,0,0,0],"trees":[{"base_weights":[-2.1090951E-8,-1.345788E0,1.6248826E0,-1.6307582E0,9.4925886E-1,1.1470413E0,1.8086201E0,-1.6881564E0,1.7974298E-1,5.5248475E-1,1.4307183E0,2.0164934E-1,1.2429377E0,1.6169649E0,1.9264163E-1,-1.7484419E-1,-7.029775E-2,-1.1156323E-2,9.099741E-2,1.5051837E-1,-1.696168E-2,-6.505906E-2,7.500131E-2,1.4133446E-1,9.679996E-2,1.6475011E-1,8.373584E-2],"categories":[],"categories_nodes":[],"categories_segments":[],"categories_sizes":[],"default_left":[0,0,0,0,0,0,0,0,0,0,0,0,0,0,0,0,0,0,0,0,0,0,0,0,0,0,0],"id":0,"left_children":[1,3,5,7,9,11,13,15,-1,17,19,21,23,25,-1,-1,-1,-1,-1,-1,-1,-1,-1,-1,-1,-1,-1],"loss_changes":[2.5606719E3,4.2045117E2,4.45011E1,1.1521948E2,1.2844879E1,1.3354172E1,5.496338E0,3.210498E1,0E0,9.777374E0,4.0232544E0,7.504415E0,5.0060577E0,2.2251587E0,0E0,0E0,0E0,0E0,0E0,0E0,0E0,0E0,0E0,0E0,0E0,0E0,0E0],"parents":[2147483647,0,0,1,1,2,2,3,3,4,4,5,5,6,6,7,7,9,9,10,10,11,11,12,12,13,13],"right_children":[2,4,6,8,10,12,14,16,-1,18,20,22,24,26,-1,-1,-1,-1,-1,-1,-1,-1,-1,-1,-1,-1,-1],"split_conditions":[1.39E2,9E1,1.47E2,1E0,9.4E1,1.4E2,1.575E2,3.085E1,1.7974298E-1,1E0,1.01E2,5.2E1,7.9E1,3.21E2,1.9264163E-1,-1.7484419E-1,-7.029775E-2,-1.1156323E-2,9.099741E-2,1.5051837E-1,-1.696168E-2,-6.505906E-2,7.500131E-2,1.4133446E-1,9.679996E-2,1.6475011E-1,8.373584E-2],"split_indices":[7,8,7,4,8,7,7,9,0,0,10,1,10,6,0,0,0,0,0,0,0,0,0,0,0,0,0],"split_type":[0,0,0,0,0,0,0,0,0,0,0,0,0,0,0,0,0,0,0,0,0,0,0,0,0,0,0],"sum_hessian":[1.1689957E3,6.395054E2,5.294903E2,5.691277E2,7.03777E1,1.490646E2,3.804257E2,5.602549E2,8.8728E0,3.97593E1,3.06184E1,1.40137E1,1.350509E2,1.504193E2,2.300064E2,5.2721844E2,3.303645E1,1.41546E1,2.56047E1,2.931385E1,1.3045499E0,5.41365E0,8.60005E0,8.081875E1,5.423215E1,1.4367834E2,6.74095E0],"tree_param":{"num_deleted":"0","num_feature":"12","num_nodes":"27","size_leaf_vector":"1"}},{"base_weights":[7.1413827E-4,-1.226703E0,1.4667338E0,-1.4851717E0,8.6150557E-1,1.0208728E0,1.6427773E0,-1.5378461E0,1.6482255E-1,4.9511123E-1,1.298932E0,1.8734668E-1,1.1249381E0,1.4667794E0,1.7512761E-1,-1.589791E-1,-6.8039104E-2,-1.8137978E-2,8.5178755E-2,1.3673654E-1,-1.6002204E-2,-4.850852E-2,6.0050018E-2,1.2802632E-1,8.750355E-2,1.0626787E-1,1.526299E-1],"categories":[],"categories_nodes":[],"categories_segments":[],"categories_sizes":[],"default_left":[0,0,0,0,0,0,0,0,0,0,0,0,0,0,0,0,0,0,0,0,0,0,0,0,0,0,0],"id":1,"left_children":[1,3,5,7,9,11,13,15,-1,17,19,21,23,25,-1,-1,-1,-1,-1,-1,-1,-1,-1,-1,-1,-1,-1],"loss_changes":[2.0927332E3,3.4294165E2,3.992224E1,9.5566895E1,1.0632698E1,1.30316925E1,4.6555786E0,2.3631958E1,0E0,9.782364E0,3.3591042E0,5.3321834E0,4.140167E0,1.9963379E0,0E0,0E0,0E0,0E0,0E0,0E0,0E0,0E0,0E0,0E0,0E0,0E0,0E0],"parents":[2147483647,0,0,1,1,2,2,3,3,4,4,5,5,6,6,7,7,9,9,10,10,11,11,12,12,13,13],"right_children":[2,4,6,8,10,12,14,16,-1,18,20,22,24,26,-1,-1,-1,-1,-1,-1,-1,-1,-1,-1,-1,-1,-1],"split_conditions":[1.385E2,9E1,1.47E2,1E0,9.4E1,1.4E2,1.575E2,3.085E1,1.6482255E-1,1E0,1.01E2,5.2E1,7.9E1,8.3E1,1.7512761E-1,-1.589791E-1,-6.8039104E-2,-1.8137978E-2,8.5178755E-2,1.3673654E-1,-1.6002204E-2,-4.850852E-2,6.0050018E-2,1.2802632E-1,8.750355E-2,1.0626787E-1,1.526299E-1],"split_indices":[7,8,7,4,8,7,7,9,0,0,10,1,10,8,0,0,0,0,0,0,0,0,0,0,0,0,0],"split_type":[0,0,0,0,0,0,0,0,0,0,0,0,0,0,0,0,0,0,0,0,0,0,0,0,0,0,0],"sum_hessian":[1.1610057E3,6.3201654E2,5.2898926E2,5.626617E2,6.9354836E1,1.5166646E2,3.7732278E2,5.5386017E2,8.801525E0,3.8901917E1,3.0452913E1,1.7144602E1,1.3452187E2,1.4943703E2,2.2788576E2,5.214184E2,3.2441795E1,1.3599626E1,2.5302292E1,2.9148458E1,1.304456E0,6.4586544E0,1.0685947E1,8.0416534E1,5.4105328E1,2.1605247E1,1.2783178E2],"tree_param":{"num_deleted":"0","num_feature":"12","num_nodes":"27","size_leaf_vector":"1"}},{"base_weights":[1.3211297E-3,-1.1249402E0,1.3465264E0,-1.3638989E0,7.849167E-1,9.2935777E-1,1.5132822E0,-1.4125197E0,1.530831E-1,3.7810674E-1,1.1154703E0,1.6959889E-1,1.024991E0,1.3455461E0,1.6175631E0,-1.626629E-1,-1.195082E-1,-6.0278207E-2,5.717509E-2,8.450119E-2,1.3847674E-1,-4.4398975E-2,5.4664712E-2,1.16957664E-1,7.9412706E-2,1.373846E-1,6.474757E-2,8.056814E-2,1.6255705E-1],"categories":[],"categories_nodes":[],"categories_segments":[],"categories_sizes":[],"default_left":[0,0,0,0,0,0,0,0,0,0,0,0,0,0,0,0,0,0,0,0,0,0,0,0,0,0,0,0,0],"id":2,"left_children":[1,3,5,7,9,11,13,15,-1,17,19,21,23,25,27,-1,-1,-1,-1,-1,-1,-1,-1,-1,-1,-1,-1,-1,-1],"loss_changes":[1.7306847E3,2.848285E2,3.48067E1,7.999182E1,8.961418E0,1.08159485E1,4.3008423E0,2.3399414E1,0E0,6.5735507E0,1.5963783E0,4.432138E0,3.5489044E0,2.0324402E0,1.427002E-1,0E0,0E0,0E0,0E0,0E0,0E0,0E0,0E0,0E0,0E0,0E0,0E0,0E0,0E0],"parents":[2147483647,0,0,1,1,2,2,3,3,4,4,5,5,6,6,7,7,9,9,10,10,11,11,12,12,13,13,14,14],"right_children":[2,4,6,8,10,12,14,16,-1,18,20,22,24,26,28,-1,-1,-1,-1,-1,-1,-1,-1,-1,-1,-1,-1,-1,-1],"split_conditions":[1.385E2,9E1,1.47E2,1E0,9.3E1,1.4E2,1.575E2,1.205E2,1.530831E-1,6.8E1,8.2E1,5.2E1,7.9E1,3.21E2,5.5E1,-1.626629E-1,-1.195082E-1,-6.0278207E-2,5.717509E-2,8.450119E-2,1.3847674E-1,-4.4398975E-2,5.4664712E-2,1.16957664E-1,7.9412706E-2,1.373846E-1,6.474757E-2,8.056814E-2,1.6255705E-1],"split_indices":[7,8,7,4,8,7,7,7,0,11,11,1,10,6,10,0,0,0,0,0,0,0,0,0,0,0,0,0,0],"split_type":[0,0,0,0,0,0,0,0,0,0,0,0,0,0,0,0,0,0,0,0,0,0,0,0,0,0,0,0,0],"sum_hessian":[1.1403267E3,6.2076245E2,5.1956415E2,5.5198474E2,6.87777E1,1.5025311E2,3.6931107E2,5.433701E2,8.614578E0,3.1793516E1,3.6984188E1,1.7108437E1,1.3314467E2,1.4690968E2,2.224014E2,2.705151E2,2.72855E2,4.8934255E0,2.6900091E1,2.0516775E1,1.6467415E1,6.4441013E0,1.0664335E1,7.937042E1,5.3774246E1,1.4025566E2,6.6540227E0,3.1645386E0,2.1923685E2],"tree_param":{"num_deleted":"0","num_feature":"12","num_nodes":"29","size_leaf_vector":"1"}},{"base_weights":[1.8694997E-3,-1.0663755E0,1.2168208E0,-1.2673986E0,6.765531E-1,7.8656775E-1,1.408756E0,-1.3132685E0,1.4359032E-1,4.7872692E-1,1.359005E0,1.2967093E-1,9.384686E-1,1.2443908E0,1.5122112E0,-1.3658996E-1,-4.7361296E-2,1.7857421E-2,1.08160235E-1,-4.9777566E-3,1.4811906E-1,-3.127096E-2,8.677283E-2,1.0750784E-1,7.227447E-2,9.855824E-2,1.3439052E-1,7.541526E-2,1.5197693E-1],"categories":[],"categories_nodes":[],"categories_segments":[],"categories_sizes":[],"default_left":[0,0,0,0,0,0,0,0,0,0,0,0,0,0,0,0,0,0,0,0,0,0,0,0,0,0,0,0,0],"id":3,"left_children":[1,3,5,7,9,11,13,15,-1,17,19,21,23,25,27,-1,-1,-1,-1,-1,-1,-1,-1,-1,-1,-1,-1,-1,-1],"loss_changes":[1.4448337E3,2.0841089E2,4.1904358E1,6.778894E1,7.70772E0,1.6136887E1,4.2213135E0,2.2471191E1,0E0,8.771516E0,2.3750324E0,1.0641718E1,3.118248E0,2.3916779E0,8.929443E-2,0E0,0E0,0E0,0E0,0E0,0E0,0E0,0E0,0E0,0E0,0E0,0E0,0E0,0E0],"parents":[2147483647,0,0,1,1,2,2,3,3,4,4,5,5,6,6,7,7,9,9,10,10,11,11,12,12,13,13,14,14],"right_children":[2,4,6,8,10,12,14,16,-1,18,20,22,24,26,28,-1,-1,-1,-1,-1,-1,-1,-1,-1,-1,-1,-1,-1,-1],"split_conditions":[1.38E2,9E1,1.47E2,1E0,5.3E1,1.4E2,1.575E2,3.085E1,1.4359032E-1,9.45E1,6.8E1,8.95E1,7.9E1,5E1,5.5E1,-1.3658996E-1,-4.7361296E-2,1.7857421E-2,1.08160235E-1,-4.9777566E-3,1.4811906E-1,-3.127096E-2,8.677283E-2,1.0750784E-1,7.227447E-2,9.855824E-2,1.3439052E-1,7.541526E-2,1.5197693E-1],"split_indices":[7,8,7,4,1,7,7,9,0,8,11,8,10,1,10,0,0,0,0,0,0,0,0,0,0,0,0,0,0],"split_type":[0,0,0,0,0,0,0,0,0,0,0,0,0,0,0,0,0,0,0,0,0,0,0,0,0,0,0,0,0],"sum_hessian":[1.1112385E3,5.9138556E2,5.1985297E2,5.304753E2,6.0910275E1,1.6193906E2,3.579139E2,5.221299E2,8.345372E0,4.8540924E1,1.2369349E1,3.0762028E1,1.3117703E2,1.4328964E2,2.1462427E2,4.9074258E2,3.1387299E1,3.327203E1,1.5268893E1,1.0344851E0,1.1334863E1,1.959399E1,1.1168036E1,7.787692E1,5.330011E1,4.282305E1,1.004666E2,3.1136508E0,2.1151062E2],"tree_param":{"num_deleted":"0","num_feature":"12","num_nodes":"29","size_leaf_vector":"1"}},{"base_weights":[2.560339E-3,-9.6799386E-1,1.1629949E0,-1.1799345E0,6.594888E-1,7.8150177E-1,1.3218696E0,-1.222334E0,1.3573885E-1,3.594884E-1,1.0335271E0,1.572553E-1,8.6224157E-1,1.1578597E0,1.4267447E0,-1.4365111E-1,-1.0083175E-1,-2.6260128E-2,6.953433E-2,1.1338166E-2,1.1725058E-1,1.16404705E-1,-7.532384E-3,9.9265955E-2,6.59086E-2,7.661213E-2,1.2179124E-1,7.071008E-2,1.4340933E-1],"categories":[],"categories_nodes":[],"categories_segments":[],"categories_sizes":[],"default_left":[0,0,0,0,0,0,0,0,0,0,0,0,0,0,0,0,0,0,0,0,0,0,0,0,0,0,0,0,0],"id":4,"left_children":[1,3,5,7,9,11,13,15,-1,17,19,21,23,25,27,-1,-1,-1,-1,-1,-1,-1,-1,-1,-1,-1,-1,-1,-1],"loss_changes":[1.214613E3,2.0334515E2,2.8736816E1,5.7597534E1,7.293354E0,7.266243E0,4.2876587E0,2.20177E1,0E0,8.42258E0,3.6867085E0,4.3124094E0,2.785225E0,2.3602448E0,7.7056885E-2,0E0,0E0,0E0,0E0,0E0,0E0,0E0,0E0,0E0,0E0,0E0,0E0,0E0,0E0],"parents":[2147483647,0,0,1,1,2,2,3,3,4,4,5,5,6,6,7,7,9,9,10,10,11,11,12,12,13,13,14,14],"right_children":[2,4,6,8,10,12,14,16,-1,18,20,22,24,26,28,-1,-1,-1,-1,-1,-1,-1,-1,-1,-1,-1,-1,-1,-1],"split_conditions":[1.385E2,9E1,1.47E2,1E0,9.4E1,1.4E2,1.575E2,1.205E2,1.3573885E-1,1E0,2.372E1,1.95E2,7.9E1,8.3E1,5.5E1,-1.4365111E-1,-1.0083175E-1,-2.6260128E-2,6.953433E-2,1.1338166E-2,1.1725058E-1,1.16404705E-1,-7.532384E-3,9.9265955E-2,6.59086E-2,7.661213E-2,1.2179124E-1,7.071008E-2,1.4340933E-1],"split_indices":[7,8,7,4,8,7,7,7,0,0,9,6,10,8,10,0,0,0,0,0,0,0,0,0,0,0,0,0,0],"split_type":[0,0,0,0,0,0,0,0,0,0,0,0,0,0,0,0,0,0,0,0,0,0,0,0,0,0,0,0,0],"sum_hessian":[1.0764442E3,5.862704E2,4.901739E2,5.189629E2,6.7307495E1,1.4585739E2,3.443165E2,5.1094308E2,8.019774E0,3.8438602E1,2.886889E1,1.704216E1,1.2881523E2,1.3899226E2,2.0532423E2,2.525207E2,2.584224E2,1.3553024E1,2.4885576E1,4.0264583E0,2.4842432E1,2.4465501E0,1.4595609E1,7.6085236E1,5.2729992E1,2.030372E1,1.18688545E2,3.0581894E0,2.0226604E2],"tree_param":{"num_deleted":"0","num_feature":"12","num_nodes":"29","size_leaf_vector":"1"}},{"base_weights":[3.0908429E-3,-9.050504E-1,1.0893908E0,-1.1065224E0,6.057417E-1,7.1877384E-1,1.2479389E0,-1.1464238E0,1.2911855E-1,4.2617387E-1,1.2603272E0,-2.432797E-1,7.623012E-1,1.0822507E0,1.3558402E0,-1.2865411E-1,-8.2165815E-2,9.728576E-3,8.5872084E-2,-8.3656125E-3,1.3726272E-1,-1.02081396E-1,3.954177E-2,2.7063817E-2,8.199366E-2,8.265995E-2,1.18241645E-1,9.0660386E-2,1.3715898E-1],"categories":[],"categories_nodes":[],"categories_segments":[],"categories_sizes":[],"default_left":[0,0,0,0,0,0,0,0,0,0,0,0,0,0,0,0,0,0,0,0,0,0,0,0,0,0,0,0,0],"id":5,"left_children":[1,3,5,7,9,11,13,15,-1,17,19,21,23,25,27,-1,-1,-1,-1,-1,-1,-1,-1,-1,-1,-1,-1,-1,-1],"loss_changes":[1.026021E3,1.730961E2,2.6930176E1,4.9333252E1,7.3735313E0,6.225975E0,4.4381714E0,2.1355164E1,0E0,7.6445017E0,2.2243385E0,3.8809068E0,3.6956253E0,2.48555E0,1.4389038E-1,0E0,0E0,0E0,0E0,0E0,0E0,0E0,0E0,0E0,0E0,0E0,0E0,0E0,0E0],"parents":[2147483647,0,0,1,1,2,2,3,3,4,4,5,5,6,6,7,7,9,9,10,10,11,11,12,12,13,13,14,14],"right_children":[2,4,6,8,10,12,14,16,-1,18,20,22,24,26,28,-1,-1,-1,-1,-1,-1,-1,-1,-1,-1,-1,-1,-1,-1],"split_conditions":[1.385E2,9E1,1.47E2,1E0,5.3E1,2.093E1,1.575E2,1.27E2,1.2911855E-1,9.4E1,6.8E1,1.415E2,1.395E2,5E1,5.9E1,-1.2865411E-1,-8.2165815E-2,9.728576E-3,8.5872084E-2,-8.3656125E-3,1.3726272E-1,-1.02081396E-1,3.954177E-2,2.7063817E-2,8.199366E-2,8.265995E-2,1.18241645E-1,9.0660386E-2,1.3715898E-1],"split_indices":[7,8,7,4,1,9,7,7,0,8,11,7,7,1,10,0,0,0,0,0,0,0,0,0,0,0,0,0,0],"split_type":[0,0,0,0,0,0,0,0,0,0,0,0,0,0,0,0,0,0,0,0,0,0,0,0,0,0,0,0,0],"sum_hessian":[1.0380479E3,5.6547797E2,4.7256985E2,4.991776E2,6.630035E1,1.4324898E2,3.293209E2,4.9151984E2,7.657761E0,5.332354E1,1.29768095E1,6.002004E0,1.3724698E2,1.3423154E2,1.9508934E2,3.4130542E2,1.5021443E2,3.0987236E1,2.2336304E1,1.0203636E0,1.1956446E1,2.4369938E0,3.5650103E0,1.4998333E1,1.2224864E2,4.0392014E1,9.383953E1,8.591419E0,1.8649791E2],"tree_param":{"num_deleted":"0","num_feature":"12","num_nodes":"29","size_leaf_vector":"1"}},{"base_weights":[3.4867423E-3,-8.7178737E-1,9.974997E-1,-1.0447606E0,5.1910776E-1,6.1206436E-1,1.1836799E0,-1.0829933E0,1.2344152E-1,2.5282058E-1,9.3929315E-1,1.112492E-1,7.318783E-1,1.0149047E0,1.295879E0,-1.2823376E-1,-8.224576E-2,-3.4610882E-2,5.759148E-2,2.6563609E-2,1.2292536E-1,-3.819227E-2,5.3910322E-2,7.80594E-2,2.1821141E-2,1.0465113E-1,3.161338E-2,8.522308E-2,1.3118728E-1],"categories":[],"categories_nodes":[],"categories_segments":[],"categories_sizes":[],"default_left":[0,0,0,0,0,0,0,0,0,0,0,0,0,0,0,0,0,0,0,0,0,0,0,0,0,0,0,0,0],"id":6,"left_children":[1,3,5,7,9,11,13,15,-1,17,19,21,23,25,27,-1,-1,-1,-1,-1,-1,-1,-1,-1,-1,-1,-1,-1,-1],"loss_changes":[8.699445E2,1.2846469E2,3.2873016E1,4.257361E1,6.417536E0,9.193146E0,4.6427E0,2.3145325E1,0E0,7.5090923E0,4.108263E0,6.7509184E0,2.9462662E0,2.545807E0,1.9729614E-1,0E0,0E0,0E0,0E0,0E0,0E0,0E0,0E0,0E0,0E0,0E0,0E0,0E0,0E0],"parents":[2147483647,0,0,1,1,2,2,3,3,4,4,5,5,6,6,7,7,9,9,10,10,11,11,12,12,13,13,14,14],"right_children":[2,4,6,8,10,12,14,16,-1,18,20,22,24,26,28,-1,-1,-1,-1,-1,-1,-1,-1,-1,-1,-1,-1,-1,-1],"split_conditions":[1.38E2,9E1,1.47E2,1E0,4.9E1,1.4E2,1.575E2,8E1,1.2344152E-1,9.2E1,7.6E1,1E0,3E1,3.21E2,5.9E1,-1.2823376E-1,-8.224576E-2,-3.4610882E-2,5.759148E-2,2.6563609E-2,1.2292536E-1,-3.819227E-2,5.3910322E-2,7.80594E-2,2.1821141E-2,1.0465113E-1,3.161338E-2,8.522308E-2,1.3118728E-1],"split_indices":[7,8,7,4,1,7,7,8,0,8,11,0,3,6,10,0,0,0,0,0,0,0,0,0,0,0,0,0,0],"split_type":[0,0,0,0,0,0,0,0,0,0,0,0,0,0,0,0,0,0,0,0,0,0,0,0,0,0,0,0,0],"sum_hessian":[9.9789777E2,5.3070795E2,4.671898E2,4.7222983E2,5.847815E1,1.535643E2,3.136255E2,4.6495514E2,7.2746854E0,3.677448E1,2.1703672E1,3.0018246E1,1.2354606E2,1.2924881E2,1.8437668E2,2.61189E2,2.0376613E2,1.2861499E1,2.391298E1,7.107388E0,1.4596284E1,1.3994566E1,1.602368E1,1.12369385E2,1.1176669E1,1.2317956E2,6.0692606E0,8.304491E0,1.7607219E2],"tree_param":{"num_deleted":"0","num_feature":"12","num_nodes":"29","size_leaf_vector":"1"}},{"base_weights":[3.8247185E-3,-8.2816607E-1,9.297684E-1,-9.885683E-1,4.555992E-1,5.477195E-1,1.126727E0,-1.0250417E0,1.1849933E-1,1.6690896E-1,9.082928E-1,9.613371E-2,6.7510426E-1,9.538122E-1,1.2442861E0,-1.2317675E-1,-7.5968735E-2,-4.869327E-2,5.080223E-2,1.2483917E-3,1.0788681E-1,-2.9672299E-2,7.57281E-2,5.9678048E-2,1.068759E-1,5.5070102E-2,1.0185945E-1,5.590688E-2,1.2523316E-1],"categories":[],"categories_nodes":[],"categories_segments":[],"categories_sizes":[],"default_left":[0,0,0,0,0,0,0,0,0,0,0,0,0,0,0,0,0,0,0,0,0,0,0,0,0,0,0,0,0],"id":7,"left_children":[1,3,5,7,9,11,13,15,-1,17,19,21,23,25,27,-1,-1,-1,-1,-1,-1,-1,-1,-1,-1,-1,-1,-1,-1],"loss_changes":[7.390634E2,1.04504395E2,3.354828E1,3.685013E1,7.2727165E0,8.931709E0,4.8839417E0,2.3344635E1,0E0,8.257266E0,3.3323193E0,9.465034E0,3.1181564E0,2.7072754E0,2.6184082E-1,0E0,0E0,0E0,0E0,0E0,0E0,0E0,0E0,0E0,0E0,0E0,0E0,0E0,0E0],"parents":[2147483647,0,0,1,1,2,2,3,3,4,4,5,5,6,6,7,7,9,9,10,10,11,11,12,12,13,13,14,14],"right_children":[2,4,6,8,10,12,14,16,-1,18,20,22,24,26,28,-1,-1,-1,-1,-1,-1,-1,-1,-1,-1,-1,-1,-1,-1],"split_conditions":[1.375E2,9E1,1.47E2,1E0,4.9E1,1.4E2,1.575E2,8E1,1.1849933E-1,9.2E1,7E1,9E1,9.55E1,8.3E1,5.5E1,-1.2317675E-1,-7.5968735E-2,-4.869327E-2,5.080223E-2,1.2483917E-3,1.0788681E-1,-2.9672299E-2,7.57281E-2,5.9678048E-2,1.068759E-1,5.5070102E-2,1.0185945E-1,5.590688E-2,1.2523316E-1],"split_indices":[7,8,7,4,1,7,7,8,0,8,11,8,8,8,10,0,0,0,0,0,0,0,0,0,0,0,0,0,0],"split_type":[0,0,0,0,0,0,0,0,0,0,0,0,0,0,0,0,0,0,0,0,0,0,0,0,0,0,0,0,0],"sum_hessian":[9.573539E2,5.043155E2,4.5303842E2,4.4850607E2,5.5809402E1,1.5539435E2,2.9764407E2,4.4162384E2,6.88224E0,3.4913307E1,2.0896095E1,3.4575836E1,1.2081851E2,1.24149315E2,1.7349477E2,2.4618776E2,1.9543608E2,1.1823223E1,2.3090084E1,3.5141366E0,1.738196E1,2.2034208E1,1.2541626E1,1.02867424E2,1.795109E1,1.8504564E1,1.0564475E2,2.831494E0,1.7066327E2],"tree_param":{"num_deleted":"0","num_feature":"12","num_nodes":"29","size_leaf_vector":"1"}},{"base_weights":[4.2067342E-3,-8.5324347E-1,8.0726105E-1,-9.646859E-1,4.5789048E-1,2.5716874E-1,1.0036834E0,-1.0334023E0,-4.071917E-2,1.1227655E0,2.430047E-1,-3.0247327E-2,6.988442E-1,8.268859E-1,1.1991413E0,-1.05866246E-1,1.0567155E-1,-2.4720365E-2,1.7221898E-1,3.492452E-2,1.3000494E-1,-2.4488695E-2,7.740383E-2,-4.7861475E-2,3.44691E-2,4.9814116E-2,1.154049E-1,7.057047E-2,1.148903E-1,7.451174E-2,1.21663354E-1],"categories":[],"categories_nodes":[],"categories_segments":[],"categories_sizes":[],"default_left":[0,0,0,0,0,0,0,0,0,0,0,0,0,0,0,0,0,0,0,0,0,0,0,0,0,0,0,0,0,0,0],"id":8,"left_children":[1,3,5,7,9,11,13,15,17,19,21,23,25,27,29,-1,-1,-1,-1,-1,-1,-1,-1,-1,-1,-1,-1,-1,-1,-1,-1],"loss_changes":[6.327131E2,6.53736E1,5.1009827E1,2.598285E1,4.7977877E0,1.604025E1,1.1078735E1,2.1259552E1,1.1133242E1,6.968565E-1,7.4693995E0,1.3177176E1,3.9737015E0,6.4716415E0,3.933258E-1,0E0,0E0,0E0,0E0,0E0,0E0,0E0,0E0,0E0,0E0,0E0,0E0,0E0,0E0,0E0,0E0],"parents":[2147483647,0,0,1,1,2,2,3,3,4,4,5,5,6,6,7,7,8,8,9,9,10,10,11,11,12,12,13,13,14,14],"right_children":[2,4,6,8,10,12,14,16,18,20,22,24,26,28,30,-1,-1,-1,-1,-1,-1,-1,-1,-1,-1,-1,-1,-1,-1,-1,-1],"split_conditions":[1.35E2,9.1E1,1.425E2,3.085E1,1.255E2,9E1,1.575E2,1E0,4.3E1,1E0,4.9E1,2.554E1,9.65E1,2.947E1,5.9E1,-1.05866246E-1,1.0567155E-1,-2.4720365E-2,1.7221898E-1,3.492452E-2,1.3000494E-1,-2.4488695E-2,7.740383E-2,-4.7861475E-2,3.44691E-2,4.9814116E-2,1.154049E-1,7.057047E-2,1.148903E-1,7.451174E-2,1.21663354E-1],"split_indices":[7,8,7,9,7,8,7,4,3,0,1,9,8,9,10,0,0,0,0,0,0,0,0,0,0,0,0,0,0,0,0],"split_type":[0,0,0,0,0,0,0,0,0,0,0,0,0,0,0,0,0,0,0,0,0,0,0,0,0,0,0,0,0,0,0],"sum_hessian":[9.168674E2,4.433858E2,4.734816E2,4.0889517E2,3.449064E1,1.2518975E2,3.4829184E2,3.8048E2,2.841516E1,7.39254E0,2.7098097E1,7.640285E1,4.8786907E1,1.8562175E2,1.6267007E2,3.7642422E2,4.055775E0,2.6205553E1,2.2096062E0,1.9321613E0,5.4603786E0,1.4403556E1,1.2694541E1,3.466838E1,4.1734463E1,3.5311943E1,1.3474965E1,1.3718713E2,4.843462E1,7.6520834E0,1.5501799E2],"tree_param":{"num_deleted":"0","num_feature":"12","num_nodes":"31","size_leaf_vector":"1"}},{"base_weights":[4.9365545E-3,-7.0998865E-1,8.628233E-1,-8.840435E-1,4.4800326E-1,5.6367993E-1,1.0628861E0,-9.172568E-1,1.1191559E-1,2.9826564E-1,1.0323839E0,6.388288E-1,2.3666905E-2,8.8034636E-1,1.1591285E0,-1.1645516E-1,-6.8968974E-2,8.304317E-3,7.698466E-2,2.9489612E-2,1.2720796E-1,4.168235E-4,7.100387E-2,3.898333E-2,-1.00637175E-1,4.9326215E-2,1.0181861E-1,7.02261E-2,1.1774546E-1],"categories":[],"categories_nodes":[],"categories_segments":[],"categories_sizes":[],"default_left":[0,0,0,0,0,0,0,0,0,0,0,0,0,0,0,0,0,0,0,0,0,0,0,0,0,0,0,0,0],"id":9,"left_children":[1,3,5,7,9,11,13,15,-1,17,19,21,23,25,27,-1,-1,-1,-1,-1,-1,-1,-1,-1,-1,-1,-1,-1,-1],"loss_changes":[5.3991486E2,9.717551E1,2.334845E1,2.882132E1,5.240308E0,6.57901E0,3.1721802E0,2.2354248E1,0E0,5.2015295E0,1.8392134E0,6.4418335E0,8.270783E0,4.115494E0,4.550171E-1,0E0,0E0,0E0,0E0,0E0,0E0,0E0,0E0,0E0,0E0,0E0,0E0,0E0,0E0],"parents":[2147483647,0,0,1,1,2,2,3,3,4,4,5,5,6,6,7,7,9,9,10,10,11,11,12,12,13,13,14,14],"right_children":[2,4,6,8,10,12,14,16,-1,18,20,22,24,26,28,-1,-1,-1,-1,-1,-1,-1,-1,-1,-1,-1,-1,-1,-1],"split_conditions":[1.385E2,9E1,1.49E2,1E0,5.3E1,9.6E1,1.575E2,1.205E2,1.1191559E-1,9.45E1,7.6E1,2.202E1,1.1E1,5E1,5.9E1,-1.1645516E-1,-6.8968974E-2,8.304317E-3,7.698466E-2,2.9489612E-2,1.2720796E-1,4.168235E-4,7.100387E-2,3.898333E-2,-1.00637175E-1,4.9326215E-2,1.0181861E-1,7.02261E-2,1.1774546E-1],"split_indices":[7,8,7,4,1,11,7,7,0,8,11,9,3,1,10,0,0,0,0,0,0,0,0,0,0,0,0,0,0],"split_type":[0,0,0,0,0,0,0,0,0,0,0,0,0,0,0,0,0,0,0,0,0,0,0,0,0,0,0,0,0],"sum_hessian":[8.783093E2,4.791659E2,3.9914343E2,4.1676025E2,6.240562E1,1.6149142E2,2.3765201E2,4.1049628E2,6.263969E0,5.0879105E1,1.1526514E1,1.416028E2,1.9888618E1,8.55463E1,1.5210571E2,1.9474803E2,2.1574826E2,3.574275E1,1.5136358E1,3.3744402E0,8.152074E0,1.4391996E1,1.2721081E2,1.5131195E1,4.7574234E0,2.366587E1,6.1880432E1,7.382429E0,1.4472328E2],"tree_param":{"num_deleted":"0","num_feature":"12","num_nodes":"29","size_leaf_vector":"1"}},{"base_weights":[5.2636666E-3,-7.647559E-1,7.1791524E-1,-1.003788E0,-2.279398E-1,3.4673855E-1,9.87278E-1,-1.0386599E0,4.0860362E-2,-4.536414E-1,4.3417493E-1,2.4936067E-1,9.731416E-1,8.0342394E-1,1.1231327E0,-1.0539825E-1,8.063825E-2,-7.326674E-2,2.0434967E-1,-6.948181E-2,3.4224056E-2,-2.0778371E-2,9.447019E-2,-7.427233E-3,4.6219643E-2,-1.1471176E-2,1.07055545E-1,5.2889165E-2,9.176587E-2,6.6194355E-2,1.14245236E-1],"categories":[],"categories_nodes":[],"categories_segments":[],"categories_sizes":[],"default_left":[0,0,0,0,0,0,0,0,0,0,0,0,0,0,0,0,0,0,0,0,0,0,0,0,0,0,0,0,0,0,0],"id":10,"left_children":[1,3,5,7,9,11,13,15,17,19,21,23,25,27,29,-1,-1,-1,-1,-1,-1,-1,-1,-1,-1,-1,-1,-1,-1,-1,-1],"loss_changes":[4.6209344E2,5.1707214E1,4.3381912E1,1.0233643E1,1.9025509E1,1.1069212E1,5.4138794E0,8.504425E0,1.6986847E1,1.8367779E1,1.0861262E1,1.1182087E1,2.7303162E0,2.9947739E0,5.171051E-1,0E0,0E0,0E0,0E0,0E0,0E0,0E0,0E0,0E0,0E0,0E0,0E0,0E0,0E0,0E0,0E0],"parents":[2147483647,0,0,1,1,2,2,3,3,4,4,5,5,6,6,7,7,8,8,9,9,10,10,11,11,12,12,13,13,14,14],"right_children":[2,4,6,8,10,12,14,16,18,20,22,24,26,28,30,-1,-1,-1,-1,-1,-1,-1,-1,-1,-1,-1,-1,-1,-1,-1,-1],"split_conditions":[1.35E2,8.3E1,1.47E2,9.7E1,2.902E1,9.6E1,1.575E2,1E0,5.1E1,5.4E1,8E1,1.4E2,6.8E1,5E1,5.9E1,-1.0539825E-1,8.063825E-2,-7.326674E-2,2.0434967E-1,-6.948181E-2,3.4224056E-2,-2.0778371E-2,9.447019E-2,-7.427233E-3,4.6219643E-2,-1.1471176E-2,1.07055545E-1,5.2889165E-2,9.176587E-2,6.6194355E-2,1.14245236E-1],"split_indices":[7,8,7,10,9,8,7,4,1,1,10,7,11,1,10,0,0,0,0,0,0,0,0,0,0,0,0,0,0,0,0],"split_type":[0,0,0,0,0,0,0,0,0,0,0,0,0,0,0,0,0,0,0,0,0,0,0,0,0,0,0,0,0,0,0],"sum_hessian":[8.400746E2,4.0374994E2,4.3632468E2,2.787562E2,1.2499373E2,1.8444724E2,2.5187744E2,2.6975705E2,8.999159E0,9.345251E1,3.1541225E1,1.6084158E2,2.3605644E1,1.0996887E2,1.4190857E2,2.6796045E2,1.7965896E0,6.9491615E0,2.0499978E0,7.1816795E1,2.1635712E1,1.4234789E1,1.7306437E1,6.4069725E1,9.6771866E1,1.9254895E0,2.1680155E1,3.3967358E1,7.600151E1,7.123479E0,1.3478508E2],"tree_param":{"num_deleted":"0","num_feature":"12","num_nodes":"31","size_leaf_vector":"1"}},{"base_weights":[5.586435E-3,-7.207629E-1,6.756669E-1,-9.610679E-1,-2.0721017E-1,3.182288E-1,9.4640696E-1,-9.9675447E-1,4.6721593E-2,-4.3671376E-1,4.0673223E-1,1.10185206E-1,5.989291E-1,7.5739115E-1,1.0903105E0,-1.0118449E-1,7.7971265E-2,-6.916825E-2,1.7661671E-1,-6.0947932E-2,5.5601537E-2,1.0605603E-1,1.9874372E-2,-4.2444985E-2,3.5818968E-2,-1.386316E-2,7.264784E-2,3.287854E-2,8.309857E-2,5.6136128E-2,1.1081115E-1],"categories":[],"categories_nodes":[],"categories_segments":[],"categories_sizes":[],"default_left":[0,0,0,0,0,0,0,0,0,0,0,0,0,0,0,0,0,0,0,0,0,0,0,0,0,0,0,0,0,0,0],"id":11,"left_children":[1,3,5,7,9,11,13,15,17,19,21,23,25,27,29,-1,-1,-1,-1,-1,-1,-1,-1,-1,-1,-1,-1,-1,-1,-1,-1],"loss_changes":[3.931259E2,4.7632874E1,4.035573E1,9.532715E0,1.776577E1,1.0596199E1,5.6627502E0,7.6192017E0,1.3887413E1,1.6004946E1,4.4785247E0,1.4218132E1,7.3908653E0,3.0825653E0,6.317749E-1,0E0,0E0,0E0,0E0,0E0,0E0,0E0,0E0,0E0,0E0,0E0,0E0,0E0,0E0,0E0,0E0],"parents":[2147483647,0,0,1,1,2,2,3,3,4,4,5,5,6,6,7,7,8,8,9,9,10,10,11,11,12,12,13,13,14,14],"right_children":[2,4,6,8,10,12,14,16,18,20,22,24,26,28,30,-1,-1,-1,-1,-1,-1,-1,-1,-1,-1,-1,-1,-1,-1,-1,-1],"split_conditions":[1.35E2,8.3E1,1.47E2,9.7E1,9.1E1,2.693E1,1.575E2,1E0,5.1E1,3.111E1,1.255E2,1.39E2,8.3E1,8.3E1,8.15E1,-1.0118449E-1,7.7971265E-2,-6.916825E-2,1.7661671E-1,-6.0947932E-2,5.5601537E-2,1.0605603E-1,1.9874372E-2,-4.2444985E-2,3.5818968E-2,-1.386316E-2,7.264784E-2,3.287854E-2,8.309857E-2,5.6136128E-2,1.1081115E-1],"split_indices":[7,8,7,10,8,9,7,4,1,9,7,7,8,8,8,0,0,0,0,0,0,0,0,0,0,0,0,0,0,0,0],"split_type":[0,0,0,0,0,0,0,0,0,0,0,0,0,0,0,0,0,0,0,0,0,0,0,0,0,0,0,0,0,0,0],"sum_hessian":[8.057161E2,3.8658868E2,4.1912744E2,2.6276334E2,1.2382537E2,1.8157835E2,2.375491E2,2.5378748E2,8.975844E0,9.034233E1,3.348304E1,1.0508568E2,7.6492676E1,1.0538722E2,1.3216188E2,2.520766E2,1.7108797E0,6.697415E0,2.2784297E0,7.727939E1,1.3062946E1,7.091436E0,2.6391605E1,3.307432E1,7.201135E1,1.1265043E1,6.522763E1,1.6245123E1,8.91421E1,5.3621945E0,1.2679969E2],"tree_param":{"num_deleted":"0","num_feature":"12","num_nodes":"31","size_leaf_vector":"1"}},{"base_weights":[5.8233393E-3,-7.691559E-1,5.688057E-1,-9.0007275E-1,1.120469E-1,2.2628027E-1,9.0750414E-1,-9.6544254E-1,-1.9071292E-2,-8.5124594E-1,4.4762102E-1,8.45834E-3,4.5511404E-1,7.1367145E-1,1.0597347E0,-9.827748E-2,8.3456725E-2,-4.5574512E-2,7.51258E-2,-1.096225E-1,4.7198813E-2,2.2293342E-2,1.1083219E-1,-2.3385728E-2,4.8132036E-2,6.1294403E-2,2.3099257E-2,7.5358495E-2,-4.550112E-3,5.649012E-2,1.0822848E-1],"categories":[],"categories_nodes":[],"categories_segments":[],"categories_sizes":[],"default_left":[0,0,0,0,0,0,0,0,0,0,0,0,0,0,0,0,0,0,0,0,0,0,0,0,0,0,0,0,0,0,0],"id":12,"left_children":[1,3,5,7,9,11,13,15,17,19,21,23,25,27,29,-1,-1,-1,-1,-1,-1,-1,-1,-1,-1,-1,-1,-1,-1,-1,-1],"loss_changes":[3.3751318E2,3.7652786E1,5.1776596E1,1.6309418E1,1.4278926E1,1.1166862E1,5.881714E0,9.053757E0,7.273094E0,4.2298574E0,4.583681E0,1.338526E1,3.723734E0,3.1256485E0,7.715912E-1,0E0,0E0,0E0,0E0,0E0,0E0,0E0,0E0,0E0,0E0,0E0,0E0,0E0,0E0,0E0,0E0],"parents":[2147483647,0,0,1,1,2,2,3,3,4,4,5,5,6,6,7,7,8,8,9,9,10,10,11,11,12,12,13,13,14,14],"right_children":[2,4,6,8,10,12,14,16,18,20,22,24,26,28,30,-1,-1,-1,-1,-1,-1,-1,-1,-1,-1,-1,-1,-1,-1,-1,-1],"split_conditions":[1.32E2,8.7E1,1.47E2,3.034E1,2.471E1,1.4E2,1.575E2,1E0,2.51E2,1.03E2,5.3E1,9E1,7.9E1,3.21E2,5.9E1,-9.827748E-2,8.3456725E-2,-4.5574512E-2,7.51258E-2,-1.096225E-1,4.7198813E-2,2.2293342E-2,1.1083219E-1,-2.3385728E-2,4.8132036E-2,6.1294403E-2,2.3099257E-2,7.5358495E-2,-4.550112E-3,5.649012E-2,1.0822848E-1],"split_indices":[7,8,7,9,9,7,7,4,6,10,1,8,10,6,10,0,0,0,0,0,0,0,0,0,0,0,0,0,0,0,0],"split_type":[0,0,0,0,0,0,0,0,0,0,0,0,0,0,0,0,0,0,0,0,0,0,0,0,0,0,0,0,0,0,0],"sum_hessian":[7.715783E2,3.2450766E2,4.4707065E2,2.8251425E2,4.199343E1,2.231089E2,2.2396175E2,2.6291058E2,1.9603659E1,1.0452369E1,3.1541061E1,1.14835976E2,1.0827293E2,1.0102122E2,1.2294053E2,2.6085284E2,2.0577304E0,1.277201E1,6.831648E0,8.964304E0,1.4880643E0,2.4534813E1,7.0062475E0,7.626158E1,3.8574394E1,6.25144E1,4.5758526E1,9.5982315E1,5.038904E0,6.493771E0,1.1644676E2],"tree_param":{"num_deleted":"0","num_feature":"12","num_nodes":"31","size_leaf_vector":"1"}},{"base_weights":[5.9038326E-3,-7.310103E-1,5.336486E-1,-8.660598E-1,7.919683E-2,2.076363E-1,8.702629E-1,-9.643157E-1,-2.4556535E-1,-8.1805694E-1,3.939556E-1,1.3285856E-1,7.927528E-1,6.7173666E-1,1.0313616E0,-1.1111423E-1,-6.510659E-2,-8.380529E-2,1.8660495E-2,4.0662315E-2,-1.0614113E-1,-1.6363133E-2,6.6115E-2,9.15745E-3,1.20061114E-1,4.133216E-2,1.0304196E-1,3.7851594E-2,7.985727E-2,5.318109E-2,1.0552826E-1],"categories":[],"categories_nodes":[],"categories_segments":[],"categories_sizes":[],"default_left":[0,0,0,0,0,0,0,0,0,0,0,0,0,0,0,0,0,0,0,0,0,0,0,0,0,0,0,0,0,0,0],"id":13,"left_children":[1,3,5,7,9,11,13,15,17,19,21,23,25,27,29,-1,-1,-1,-1,-1,-1,-1,-1,-1,-1,-1,-1,-1,-1,-1,-1],"loss_changes":[2.8817627E2,3.390323E1,4.7202118E1,1.5927338E1,1.3057994E1,9.549078E0,6.0912476E0,9.788025E0,9.780417E0,4.0187683E0,5.182428E0,8.567467E0,1.8107586E0,3.338314E0,8.157425E-1,0E0,0E0,0E0,0E0,0E0,0E0,0E0,0E0,0E0,0E0,0E0,0E0,0E0,0E0,0E0,0E0],"parents":[2147483647,0,0,1,1,2,2,3,3,4,4,5,5,6,6,7,7,8,8,9,9,10,10,11,11,12,12,13,13,14,14],"right_children":[2,4,6,8,10,12,14,16,18,20,22,24,26,28,30,-1,-1,-1,-1,-1,-1,-1,-1,-1,-1,-1,-1,-1,-1,-1,-1],"split_conditions":[1.32E2,8.65E1,1.47E2,2.868E1,2.471E1,9.6E1,1.575E2,5.1E1,8E1,1.71E2,2.29E2,1E0,4.7E1,5E1,5.9E1,-1.1111423E-1,-6.510659E-2,-8.380529E-2,1.8660495E-2,4.0662315E-2,-1.0614113E-1,-1.6363133E-2,6.6115E-2,9.15745E-3,1.20061114E-1,4.133216E-2,1.0304196E-1,3.7851594E-2,7.985727E-2,5.318109E-2,1.0552826E-1],"split_indices":[7,8,7,9,9,8,7,1,8,6,6,4,1,1,10,0,0,0,0,0,0,0,0,0,0,0,0,0,0,0,0],"split_type":[0,0,0,0,0,0,0,0,0,0,0,0,0,0,0,0,0,0,0,0,0,0,0,0,0,0,0,0,0,0,0],"sum_hessian":[7.389954E2,3.082236E2,4.3077185E2,2.641284E2,4.40952E1,2.1965343E2,2.1111842E2,2.2754268E2,3.6585724E1,1.1036232E1,3.3058968E1,1.958508E2,2.3802616E1,9.68891E1,1.14229324E2,1.5319154E2,7.435113E1,1.5034658E1,2.1551065E1,1.7182475E0,9.317984E0,1.0835277E1,2.222369E1,1.8960558E2,6.2452316E0,1.0222165E1,1.3580451E1,3.0458693E1,6.6430405E1,6.2815394E0,1.07947784E2],"tree_param":{"num_deleted":"0","num_feature":"12","num_nodes":"31","size_leaf_vector":"1"}},{"base_weights":[5.768683E-3,-5.0581867E-1,6.8548566E-1,-6.637416E-1,3.497565E-1,5.112839E-1,1.0045047E0,-9.977953E-1,-4.18317E-1,2.1398108E-1,8.520016E-1,4.0368098E-1,8.506241E-1,4.2406836E-1,1.0260531E0,-1.0254301E-1,1.3601337E-1,-7.065299E-2,-1.2543845E-2,3.8307033E-2,-2.0676177E-2,1.06317304E-1,8.618421E-4,3.1358305E-2,8.14155E-2,2.6525194E-2,1.0431055E-1,8.80474E-2,-4.7147535E-2,7.4515656E-2,1.0801834E-1],"categories":[],"categories_nodes":[],"categories_segments":[],"categories_sizes":[],"default_left":[0,0,0,0,0,0,0,0,0,0,0,0,0,0,0,0,0,0,0,0,0,0,0,0,0,0,0,0,0,0,0],"id":14,"left_children":[1,3,5,7,9,11,13,15,17,19,21,23,25,27,29,-1,-1,-1,-1,-1,-1,-1,-1,-1,-1,-1,-1,-1,-1,-1,-1],"loss_changes":[2.478404E2,5.517861E1,1.6495667E1,2.7756226E1,4.1834598E0,6.959526E0,9.039917E-1,1.0831329E1,1.6778717E1,3.7596097E0,2.3575535E0,5.4309883E0,5.0469093E0,2.6782124E0,7.5401306E-1,0E0,0E0,0E0,0E0,0E0,0E0,0E0,0E0,0E0,0E0,0E0,0E0,0E0,0E0,0E0,0E0],"parents":[2147483647,0,0,1,1,2,2,3,3,4,4,5,5,6,6,7,7,8,8,9,9,10,10,11,11,12,12,13,13,14,14],"right_children":[2,4,6,8,10,12,14,16,18,20,22,24,26,28,30,-1,-1,-1,-1,-1,-1,-1,-1,-1,-1,-1,-1,-1,-1,-1,-1],"split_conditions":[1.395E2,9E1,1.575E2,1.205E2,5.3E1,2.947E1,8.15E1,3.522E1,2.38E2,2.59E2,8.6E1,9.75E1,2.22E2,2.835E1,2.13E2,-1.0254301E-1,1.3601337E-1,-7.065299E-2,-1.2543845E-2,3.8307033E-2,-2.0676177E-2,1.06317304E-1,8.618421E-4,3.1358305E-2,8.14155E-2,2.6525194E-2,1.0431055E-1,8.80474E-2,-4.7147535E-2,7.4515656E-2,1.0801834E-1],"split_indices":[7,8,7,7,1,9,8,9,6,6,10,8,6,9,6,0,0,0,0,0,0,0,0,0,0,0,0,0,0,0,0],"split_type":[0,0,0,0,0,0,0,0,0,0,0,0,0,0,0,0,0,0,0,0,0,0,0,0,0,0,0,0,0,0,0],"sum_hessian":[7.1073145E2,4.056647E2,3.050667E2,3.4264346E2,6.302125E1,1.9900291E2,1.06063805E2,1.4382033E2,1.9882312E2,5.0732445E1,1.2288807E1,1.5275482E2,4.62481E1,4.536868E0,1.0152693E2,1.4271286E2,1.1074709E0,9.9497894E1,9.9325226E1,3.6252666E1,1.4479777E1,9.61959E0,2.6692169E0,1.2670693E2,2.6047884E1,1.203264E1,3.4215458E1,3.0164099E0,1.5204582E0,1.8789452E1,8.273748E1],"tree_param":{"num_deleted":"0","num_feature":"12","num_nodes":"31","size_leaf_vector":"1"}},{"base_weights":[6.1532357E-3,-6.615281E-1,4.7106737E-1,-7.9468066E-1,7.31237E-2,2.0922095E-1,8.437985E-1,-8.997974E-1,-1.7410184E-1,-7.5823176E-1,3.588943E-1,3.9398107E-3,3.9008677E-1,6.3296306E-1,9.788313E-1,-1.0602134E-1,-5.730195E-2,-7.616798E-2,2.2041354E-2,-9.832297E-2,4.716879E-2,1.5808659E-2,1.03788845E-1,-6.01979E-3,1.4893346E-1,4.6451163E-2,-1.0884753E-2,2.234309E-2,7.951149E-2,4.4733517E-2,1.006637E-1],"categories":[],"categories_nodes":[],"categories_segments":[],"categories_sizes":[],"default_left":[0,0,0,0,0,0,0,0,0,0,0,0,0,0,0,0,0,0,0,0,0,0,0,0,0,0,0,0,0,0,0],"id":15,"left_children":[1,3,5,7,9,11,13,15,17,19,21,23,25,27,29,-1,-1,-1,-1,-1,-1,-1,-1,-1,-1,-1,-1,-1,-1,-1,-1],"loss_changes":[2.1258578E2,2.7557747E1,3.922567E1,1.5373596E1,1.0737422E1,8.852133E0,4.1137238E0,1.0052048E1,8.4491625E0,3.670981E0,4.398165E0,1.0826763E1,4.757519E0,4.320692E0,1.0204239E0,0E0,0E0,0E0,0E0,0E0,0E0,0E0,0E0,0E0,0E0,0E0,0E0,0E0,0E0,0E0,0E0],"parents":[2147483647,0,0,1,1,2,2,3,3,4,4,5,5,6,6,7,7,8,8,9,9,10,10,11,11,12,12,13,13,14,14],"right_children":[2,4,6,8,10,12,14,16,18,20,22,24,26,28,30,-1,-1,-1,-1,-1,-1,-1,-1,-1,-1,-1,-1,-1,-1,-1,-1],"split_conditions":[1.32E2,8.65E1,1.49E2,2.868E1,2.471E1,1.4E2,1.575E2,5.1E1,8E1,1.03E2,9.4E1,6.6E1,9.6E1,5E1,5.9E1,-1.0602134E-1,-5.730195E-2,-7.616798E-2,2.2041354E-2,-9.832297E-2,4.716879E-2,1.5808659E-2,1.03788845E-1,-6.01979E-3,1.4893346E-1,4.6451163E-2,-1.0884753E-2,2.234309E-2,7.951149E-2,4.4733517E-2,1.006637E-1],"split_indices":[7,8,7,9,9,7,7,1,8,10,8,1,11,1,10,0,0,0,0,0,0,0,0,0,0,0,0,0,0,0,0],"split_type":[0,0,0,0,0,0,0,0,0,0,0,0,0,0,0,0,0,0,0,0,0,0,0,0,0,0,0,0,0,0,0],"sum_hessian":[6.82841E2,2.801228E2,4.027182E2,2.3707266E2,4.3050137E1,2.3746121E2,1.6525697E2,2.0234802E2,3.4724648E1,1.0589675E1,3.246046E1,1.1170209E2,1.2575912E2,6.673962E1,9.8517365E1,1.3421645E2,6.813158E1,1.3575332E1,2.1149315E1,9.121574E0,1.4681003E0,2.6003063E1,6.4573975E0,1.07998314E2,3.7037752E0,1.09495E2,1.626411E1,1.960442E1,4.7135193E1,5.7473145E0,9.277005E1],"tree_param":{"num_deleted":"0","num_feature":"12","num_nodes":"31","size_leaf_vector":"1"}},{"base_weights":[6.0175858E-3,-6.277718E-1,4.397549E-1,-9.336091E-1,-3.0157426E-1,1.913917E-1,8.112291E-1,-1.0904425E0,-6.770738E-1,-5.349469E-1,2.8014326E-1,1.540153E-1,1.1668133E-1,5.960685E-1,9.539412E-1,-1.115514E-1,-1.423938E-2,-7.458001E-2,1.22688904E-1,-7.360574E-2,4.056621E-3,1.3972889E-2,1.9056031E-1,-8.570075E-5,3.854763E-2,2.0490153E-2,7.570491E-2,4.19963E-2,9.834375E-2],"categories":[],"categories_nodes":[],"categories_segments":[],"categories_sizes":[],"default_left":[0,0,0,0,0,0,0,0,0,0,0,0,0,0,0,0,0,0,0,0,0,0,0,0,0,0,0,0,0],"id":16,"left_children":[1,3,5,7,9,11,13,15,17,19,21,23,-1,25,27,-1,-1,-1,-1,-1,-1,-1,-1,-1,-1,-1,-1,-1,-1],"loss_changes":[1.8121089E2,2.643856E1,3.595125E1,4.8039856E0,1.7944954E1,8.4188795E0,4.2369843E0,1.8342285E0,8.099104E0,1.0897303E1,8.449373E0,8.18414E0,0E0,3.9427204E0,1.0427628E0,0E0,0E0,0E0,0E0,0E0,0E0,0E0,0E0,0E0,0E0,0E0,0E0,0E0,0E0],"parents":[2147483647,0,0,1,1,2,2,3,3,4,4,5,5,6,6,7,7,8,8,9,9,10,10,11,11,13,13,14,14],"right_children":[2,4,6,8,10,12,14,16,18,20,22,24,-1,26,28,-1,-1,-1,-1,-1,-1,-1,-1,-1,-1,-1,-1,-1,-1],"split_conditions":[1.32E2,8E1,1.49E2,1E0,2.859E1,1E0,1.575E2,3.18E2,9.7E1,5.3E1,4.3E1,9E1,1.1668133E-1,5E1,5.9E1,-1.115514E-1,-1.423938E-2,-7.458001E-2,1.22688904E-1,-7.360574E-2,4.056621E-3,1.3972889E-2,1.9056031E-1,-8.570075E-5,3.854763E-2,2.0490153E-2,7.570491E-2,4.19963E-2,9.834375E-2],"split_indices":[7,8,7,0,9,4,7,6,10,1,3,8,0,1,10,0,0,0,0,0,0,0,0,0,0,0,0,0,0],"split_type":[0,0,0,0,0,0,0,0,0,0,0,0,0,0,0,0,0,0,0,0,0,0,0,0,0,0,0,0,0],"sum_hessian":[6.5718866E2,2.6683475E2,3.903539E2,1.3675421E2,1.3008054E2,2.3485074E2,1.5550319E2,8.285188E1,5.3902332E1,9.289389E1,3.718664E1,2.2729895E2,7.5517907E0,6.407577E1,9.1427414E1,8.0545204E1,2.3066776E0,5.2611538E1,1.2907972E0,6.863184E1,2.426205E1,3.522934E1,1.957303E0,1.3677684E2,9.052211E1,1.9344172E1,4.4731598E1,5.5836296E0,8.584378E1],"tree_param":{"num_deleted":"0","num_feature":"12","num_nodes":"29","size_leaf_vector":"1"}},{"base_weights":[6.1530117E-3,-4.1810653E-1,5.812243E-1,-8.838906E-1,-1.8300767E-1,4.167823E-1,9.2963797E-1,-9.1447234E-1,1.2231719E-1,-3.3594275E-1,2.972263E-1,3.092018E-1,7.683142E-1,2.9740632E-1,9.5586926E-1,-9.49883E-2,3.8749363E-2,-5.4538596E-2,3.6088098E-3,4.7216117E-2,-8.189336E-3,3.930226E-2,-1.340458E-2,1.8690083E-2,9.7234935E-2,8.091193E-2,-5.7345223E-2,6.597695E-2,1.03229575E-1],"categories":[],"categories_nodes":[],"categories_segments":[],"categories_sizes":[],"default_left":[0,0,0,0,0,0,0,0,0,0,0,0,0,0,0,0,0,0,0,0,0,0,0,0,0,0,0,0,0],"id":17,"left_children":[1,3,5,7,9,11,13,15,-1,17,19,21,23,25,27,-1,-1,-1,-1,-1,-1,-1,-1,-1,-1,-1,-1,-1,-1],"loss_changes":[1.5534023E2,3.9960754E1,1.509906E1,9.021225E0,1.8075962E1,6.7755356E0,1.1395798E0,5.96772E0,0E0,1.4521114E1,3.994666E0,5.3902617E0,4.8932285E0,2.6350706E0,1.1742096E0,0E0,0E0,0E0,0E0,0E0,0E0,0E0,0E0,0E0,0E0,0E0,0E0,0E0,0E0],"parents":[2147483647,0,0,1,1,2,2,3,3,4,4,5,5,6,6,7,7,9,9,10,10,11,11,12,12,13,13,14,14],"right_children":[2,4,6,8,10,12,14,16,-1,18,20,22,24,26,28,-1,-1,-1,-1,-1,-1,-1,-1,-1,-1,-1,-1,-1,-1],"split_conditions":[1.395E2,1.205E2,1.575E2,3.522E1,9E1,2.947E1,8.15E1,8.9E1,1.2231719E-1,5.4E1,2.57E2,2.782E1,2.22E2,2.835E1,2.18E2,-9.49883E-2,3.8749363E-2,-5.4538596E-2,3.6088098E-3,4.7216117E-2,-8.189336E-3,3.930226E-2,-1.340458E-2,1.8690083E-2,9.7234935E-2,8.091193E-2,-5.7345223E-2,6.597695E-2,1.03229575E-1],"split_indices":[7,7,7,9,8,9,8,8,0,1,6,9,6,9,6,0,0,0,0,0,0,0,0,0,0,0,0,0,0],"split_type":[0,0,0,0,0,0,0,0,0,0,0,0,0,0,0,0,0,0,0,0,0,0,0,0,0,0,0,0,0],"sum_hessian":[6.3469775E2,3.6539795E2,2.692998E2,1.2164063E2,2.4375731E2,1.8444354E2,8.485626E1,1.20458305E2,1.1823227E0,1.8510828E2,5.8649036E1,1.4266338E2,4.1780167E1,3.8719356E0,8.098432E1,1.1753211E2,2.9261951E0,1.18135345E2,6.697293E1,3.996351E1,1.868553E1,1.2007062E2,2.2592766E1,1.1350915E1,3.042925E1,2.4835224E0,1.3884132E0,1.8590748E1,6.2393578E1],"tree_param":{"num_deleted":"0","num_feature":"12","num_nodes":"29","size_leaf_vector":"1"}},{"base_weights":[6.3254843E-3,-5.615073E-1,3.849499E-1,-9.008436E-1,-2.669349E-1,1.6136496E-1,7.5034624E-1,-9.242023E-1,7.104335E-2,-4.6887308E-1,2.2852255E-1,1.2592179E-1,1.1273332E-1,2.3158504E-1,8.142932E-1,-9.569991E-2,2.0330662E-2,-6.628343E-2,3.9464924E-3,1.0156205E-2,1.655641E-1,6.610369E-3,6.354783E-2,-3.621758E-2,4.9633138E-2,4.9054664E-2,8.8588886E-2],"categories":[],"categories_nodes":[],"categories_segments":[],"categories_sizes":[],"default_left":[0,0,0,0,0,0,0,0,0,0,0,0,0,0,0,0,0,0,0,0,0,0,0,0,0,0,0],"id":18,"left_children":[1,3,5,7,9,11,13,15,-1,17,19,21,-1,23,25,-1,-1,-1,-1,-1,-1,-1,-1,-1,-1,-1,-1],"loss_changes":[1.3206732E2,2.4323837E1,2.9986843E1,4.9387283E0,1.3410982E1,7.7293253E0,4.4432373E0,4.357727E0,0E0,9.372688E0,6.929881E0,6.751973E0,0E0,2.8080812E0,2.4374084E0,0E0,0E0,0E0,0E0,0E0,0E0,0E0,0E0,0E0,0E0,0E0,0E0],"parents":[2147483647,0,0,1,1,2,2,3,3,4,4,5,5,6,6,7,7,9,9,10,10,11,11,13,13,14,14],"right_children":[2,4,6,8,10,12,14,16,-1,18,20,22,-1,24,26,-1,-1,-1,-1,-1,-1,-1,-1,-1,-1,-1,-1],"split_conditions":[1.32E2,7.9E1,1.49E2,1E0,2.859E1,1E0,8.3E1,9.7E1,7.104335E-2,5.3E1,4.3E1,9.65E1,1.1273332E-1,1.525E2,2.13E2,-9.569991E-2,2.0330662E-2,-6.628343E-2,3.9464924E-3,1.0156205E-2,1.655641E-1,6.610369E-3,6.354783E-2,-3.621758E-2,4.9633138E-2,4.9054664E-2,8.8588886E-2],"split_indices":[7,8,7,4,9,4,8,10,0,1,3,8,0,7,6,0,0,0,0,0,0,0,0,0,0,0,0],"split_type":[0,0,0,0,0,0,0,0,0,0,0,0,0,0,0,0,0,0,0,0,0,0,0,0,0,0,0],"sum_hessian":[6.1227454E2,2.4474345E2,3.675311E2,1.1277396E2,1.319695E2,2.2890588E2,1.386252E2,1.11582756E2,1.1912005E0,9.379447E1,3.8175022E1,2.2189453E2,7.0113635E0,1.5720031E1,1.22905174E2,1.0857575E2,3.0070052E0,6.76703E1,2.6124168E1,3.603997E1,2.1350527E0,1.9959348E2,2.2301044E1,4.734254E0,1.0985777E1,2.367978E1,9.9225395E1],"tree_param":{"num_deleted":"0","num_feature":"12","num_nodes":"27","size_leaf_vector":"1"}},{"base_weights":[6.4841476E-3,-3.668265E-1,5.1835257E-1,-8.3059573E-1,-1.5350656E-1,3.602367E-1,8.849246E-1,-8.636288E-1,1.1238772E-1,-2.4888687E-1,5.0414675E-1,2.5757375E-1,7.0929766E-1,3.0037597E-1,9.2154396E-1,-9.025285E-2,3.9197683E-2,-2.9674817E-2,1.1519962E-1,3.3972774E-2,9.7384535E-2,3.3887144E-2,-1.6038124E-2,2.6712537E-2,9.898032E-2,-6.202608E-2,6.9603376E-2,4.953069E-2,9.646914E-2],"categories":[],"categories_nodes":[],"categories_segments":[],"categories_sizes":[],"default_left":[0,0,0,0,0,0,0,0,0,0,0,0,0,0,0,0,0,0,0,0,0,0,0,0,0,0,0,0,0],"id":19,"left_children":[1,3,5,7,9,11,13,15,-1,17,19,21,23,25,27,-1,-1,-1,-1,-1,-1,-1,-1,-1,-1,-1,-1,-1,-1],"loss_changes":[1.1371283E2,3.391756E1,1.422728E1,7.955765E0,1.4987807E1,6.1609898E0,1.3273811E0,5.5779724E0,0E0,1.4260694E1,2.0123262E0,4.755663E0,4.654871E0,2.5814118E0,8.102989E-1,0E0,0E0,0E0,0E0,0E0,0E0,0E0,0E0,0E0,0E0,0E0,0E0,0E0,0E0],"parents":[2147483647,0,0,1,1,2,2,3,3,4,4,5,5,6,6,7,7,9,9,10,10,11,11,12,12,13,13,14,14],"right_children":[2,4,6,8,10,12,14,16,-1,18,20,22,24,26,28,-1,-1,-1,-1,-1,-1,-1,-1,-1,-1,-1,-1,-1,-1],"split_conditions":[1.395E2,1.205E2,1.575E2,3.522E1,9.3E1,2.947E1,5.9E1,8.9E1,1.1238772E-1,1E0,5.3E1,2.782E1,2.36E2,1.665E2,6.8E1,-9.025285E-2,3.9197683E-2,-2.9674817E-2,1.1519962E-1,3.3972774E-2,9.7384535E-2,3.3887144E-2,-1.6038124E-2,2.6712537E-2,9.898032E-2,-6.202608E-2,6.9603376E-2,4.953069E-2,9.646914E-2],"split_indices":[7,7,7,9,8,9,10,8,0,4,1,9,6,7,11,0,0,0,0,0,0,0,0,0,0,0,0,0,0],"split_type":[0,0,0,0,0,0,0,0,0,0,0,0,0,0,0,0,0,0,0,0,0,0,0,0,0,0,0,0,0],"sum_hessian":[5.930923E2,3.431286E2,2.4996368E2,1.0719252E2,2.3593608E2,1.7602179E2,7.3941895E1,1.0595979E2,1.2327275E0,2.0659491E2,2.9341171E1,1.3736038E2,3.8661407E1,4.9015718E0,6.904032E1,1.0304847E2,2.911325E0,2.0053189E2,6.0630217E0,2.300982E1,6.331351E0,1.151512E2,2.2209183E1,1.5764107E1,2.2897303E1,1.302704E0,3.598868E0,7.4935756E0,6.1546745E1],"tree_param":{"num_deleted":"0","num_feature":"12","num_nodes":"29","size_leaf_vector":"1"}},{"base_weights":[7.1176216E-3,-5.0068104E-1,3.365921E-1,-8.7216216E-1,-2.116508E-1,1.3794866E-1,6.9026905E-1,-9.414866E-1,3.4090525E-1,-3.979975E-1,3.46632E-1,1.06032886E-1,1.07294165E-1,4.6675783E-1,8.614463E-1,-9.694958E-2,6.9552705E-2,-4.0598854E-2,1.4691433E-1,-6.2370177E-2,-5.8778486E-4,-2.1226678E-2,6.253108E-2,4.9551176E-3,5.402158E-2,5.6304946E-3,6.46801E-2,2.7874557E-2,9.0001486E-2],"categories":[],"categories_nodes":[],"categories_segments":[],"categories_sizes":[],"default_left":[0,0,0,0,0,0,0,0,0,0,0,0,0,0,0,0,0,0,0,0,0,0,0,0,0,0,0,0,0],"id":20,"left_children":[1,3,5,7,9,11,13,15,17,19,21,23,-1,25,27,-1,-1,-1,-1,-1,-1,-1,-1,-1,-1,-1,-1,-1,-1],"loss_changes":[9.62717E1,2.4127972E1,2.4422188E1,8.626694E0,1.3524328E1,6.5919504E0,4.390362E0,4.970253E0,5.714283E0,8.575593E0,5.2313805E0,5.32931E0,0E0,4.1394815E0,1.316719E0,0E0,0E0,0E0,0E0,0E0,0E0,0E0,0E0,0E0,0E0,0E0,0E0,0E0,0E0],"parents":[2147483647,0,0,1,1,2,2,3,3,4,4,5,5,6,6,7,7,8,8,9,9,10,10,11,11,13,13,14,14],"right_children":[2,4,6,8,10,12,14,16,18,20,22,24,-1,26,28,-1,-1,-1,-1,-1,-1,-1,-1,-1,-1,-1,-1,-1,-1],"split_conditions":[1.32E2,2.46E1,1.49E2,9.7E1,8.65E1,1E0,1.575E2,1E0,5.1E1,2.46E2,2.29E2,9.6E1,1.07294165E-1,5E1,5.9E1,-9.694958E-2,6.9552705E-2,-4.0598854E-2,1.4691433E-1,-6.2370177E-2,-5.8778486E-4,-2.1226678E-2,6.253108E-2,4.9551176E-3,5.402158E-2,5.6304946E-3,6.46801E-2,2.7874557E-2,9.0001486E-2],"split_indices":[7,9,7,10,8,4,7,4,1,6,6,8,0,1,10,0,0,0,0,0,0,0,0,0,0,0,0,0,0],"split_type":[0,0,0,0,0,0,0,0,0,0,0,0,0,0,0,0,0,0,0,0,0,0,0,0,0,0,0,0,0],"sum_hessian":[5.7341315E2,2.2543872E2,3.4797443E2,9.7765884E1,1.2767284E2,2.2371465E2,1.2425977E2,9.2692566E1,5.0733185E0,9.5937416E1,3.1735416E1,2.174069E2,6.3077326E0,5.5508026E1,6.875175E1,9.153419E1,1.1583786E0,3.4377103E0,1.6356081E0,6.0514603E1,3.5422817E1,1.0638298E1,2.1097118E1,1.933665E2,2.4040415E1,1.7324736E1,3.818329E1,4.778878E0,6.397287E1],"tree_param":{"num_deleted":"0","num_feature":"12","num_nodes":"29","size_leaf_vector":"1"}},{"base_weights":[7.194077E-3,-3.2060727E-1,4.6018437E-1,-7.783612E-1,-1.2733619E-1,3.1354704E-1,8.376519E-1,-8.1392515E-1,1.052325E-1,-2.1244822E-1,4.5856735E-1,2.1513431E-1,6.598685E-1,1.6130486E-1,8.708204E-1,5.5065405E-2,-8.494144E-2,-2.54695E-2,1.0914645E-1,3.011004E-2,9.2864856E-2,1.711413E-2,1.0155801E-1,2.2670897E-2,9.49855E-2,7.368037E-2,-6.694647E-2,5.1749226E-2,9.704923E-2],"categories":[],"categories_nodes":[],"categories_segments":[],"categories_sizes":[],"default_left":[0,0,0,0,0,0,0,0,0,0,0,0,0,0,0,0,0,0,0,0,0,0,0,0,0,0,0,0,0],"id":21,"left_children":[1,3,5,7,9,11,13,15,-1,17,19,21,23,25,27,-1,-1,-1,-1,-1,-1,-1,-1,-1,-1,-1,-1,-1,-1],"loss_changes":[8.287404E1,2.8548534E1,1.2706352E1,7.1024704E0,1.1510851E1,5.663927E0,1.316742E0,5.0524025E0,0E0,1.1324301E1,1.8927355E0,4.5496798E0,4.4588337E0,2.5318966E0,1.6704254E0,0E0,0E0,0E0,0E0,0E0,0E0,0E0,0E0,0E0,0E0,0E0,0E0,0E0,0E0],"parents":[2147483647,0,0,1,1,2,2,3,3,4,4,5,5,6,6,7,7,9,9,10,10,11,11,12,12,13,13,14,14],"right_children":[2,4,6,8,10,12,14,16,-1,18,20,22,24,26,28,-1,-1,-1,-1,-1,-1,-1,-1,-1,-1,-1,-1,-1,-1],"split_conditions":[1.395E2,1.205E2,1.575E2,3.522E1,9.3E1,2.947E1,8.15E1,1.53E2,1.052325E-1,1E0,5.3E1,1E0,2.36E2,2.835E1,2.18E2,5.5065405E-2,-8.494144E-2,-2.54695E-2,1.0914645E-1,3.011004E-2,9.2864856E-2,1.711413E-2,1.0155801E-1,2.2670897E-2,9.49855E-2,7.368037E-2,-6.694647E-2,5.1749226E-2,9.704923E-2],"split_indices":[7,7,7,9,8,9,8,6,0,4,1,4,6,9,6,0,0,0,0,0,0,0,0,0,0,0,0,0,0],"split_type":[0,0,0,0,0,0,0,0,0,0,0,0,0,0,0,0,0,0,0,0,0,0,0,0,0,0,0,0,0],"sum_hessian":[5.5611523E2,3.2280978E2,2.3330544E2,9.4934456E1,2.2787532E2,1.6934827E2,6.3957176E1,9.3670166E1,1.2642924E0,1.9952803E2,2.8347298E1,1.3313658E2,3.6211678E1,3.263968E0,6.069321E1,2.0064123E0,9.166375E1,1.9404561E2,5.48241E0,2.2463158E1,5.8841405E0,1.273511E2,5.7854896E0,1.52356415E1,2.0976038E1,1.9950466E0,1.2689214E0,1.4716493E1,4.5976715E1],"tree_param":{"num_deleted":"0","num_feature":"12","num_nodes":"29","size_leaf_vector":"1"}},{"base_weights":[8.023146E-3,-4.449336E-1,2.935416E-1,-8.2916963E-1,-1.6316593E-1,1.7673145E-1,8.1402355E-1,-9.0311426E-1,3.433385E-1,-4.637558E-1,1.3073231E-1,1.062371E-1,6.167879E-1,2.1800248E-1,8.575651E-1,-9.3184315E-2,6.63094E-2,-3.8273066E-2,1.3755201E-1,9.8035894E-2,-5.481557E-2,-6.505076E-3,7.971969E-2,7.3607746E-3,1.0439048E-1,1.067227E-2,8.2428835E-2,6.356412E-2,-6.214423E-2,3.7409224E-2,9.103536E-2],"categories":[],"categories_nodes":[],"categories_segments":[],"categories_sizes":[],"default_left":[0,0,0,0,0,0,0,0,0,0,0,0,0,0,0,0,0,0,0,0,0,0,0,0,0,0,0,0,0,0,0],"id":22,"left_children":[1,3,5,7,9,11,13,15,17,19,21,23,25,27,29,-1,-1,-1,-1,-1,-1,-1,-1,-1,-1,-1,-1,-1,-1,-1,-1],"loss_changes":[7.003274E1,2.2532658E1,2.0048864E1,7.968811E0,1.0841877E1,8.3888E0,1.3857117E0,4.3691864E0,4.996806E0,7.917713E0,8.205228E0,7.1470485E0,3.872693E0,2.311477E0,1.0920486E0,0E0,0E0,0E0,0E0,0E0,0E0,0E0,0E0,0E0,0E0,0E0,0E0,0E0,0E0,0E0,0E0],"parents":[2147483647,0,0,1,1,2,2,3,3,4,4,5,5,6,6,7,7,8,8,9,9,10,10,11,11,12,12,13,13,14,14],"right_children":[2,4,6,8,10,12,14,16,18,20,22,24,26,28,30,-1,-1,-1,-1,-1,-1,-1,-1,-1,-1,-1,-1,-1,-1,-1,-1],"split_conditions":[1.32E2,2.46E1,1.575E2,9.7E1,8.2E1,9.65E1,5.9E1,1E0,5.1E1,2.477E1,5.5E1,1E0,4.6E1,2.878E1,6.8E1,-9.3184315E-2,6.63094E-2,-3.8273066E-2,1.3755201E-1,9.8035894E-2,-5.481557E-2,-6.505076E-3,7.971969E-2,7.3607746E-3,1.0439048E-1,1.067227E-2,8.2428835E-2,6.356412E-2,-6.214423E-2,3.7409224E-2,9.103536E-2],"split_indices":[7,9,7,10,8,8,10,4,1,9,1,4,1,9,11,0,0,0,0,0,0,0,0,0,0,0,0,0,0,0,0],"split_type":[0,0,0,0,0,0,0,0,0,0,0,0,0,0,0,0,0,0,0,0,0,0,0,0,0,0,0,0,0,0,0],"sum_hessian":[5.395047E2,2.0837413E2,3.3113055E2,8.733539E1,1.2103875E2,2.715312E2,5.959935E1,8.237043E1,4.964961E0,5.955244E1,6.1486305E1,2.351095E2,3.6421688E1,4.4664755E0,5.5132874E1,8.128446E1,1.0859616E0,3.2840552E0,1.6809059E0,2.7021413E0,5.68503E1,4.822264E1,1.3263664E1,2.2824542E2,6.8640804E0,1.097006E1,2.545163E1,3.14471E0,1.3217655E0,6.2231936E0,4.890968E1],"tree_param":{"num_deleted":"0","num_feature":"12","num_nodes":"31","size_leaf_vector":"1"}},{"base_weights":[8.232561E-3,-2.7750126E-1,4.0940496E-1,-7.24998E-1,-1.0435178E-1,2.7546048E-1,7.900629E-1,-8.063255E-1,1.6295037E-1,-1.5462784E-1,8.283739E-1,1.6983399E-1,5.960413E-1,2.0077704E-1,8.3566755E-1,5.4392E-2,-8.489528E-2,-6.453093E-2,1.0505358E-1,-3.4459177E-2,1.7916976E-2,1.4541046E-1,-4.7088485E-2,2.5691226E-2,-3.9148998E-2,-5.980684E-4,8.3170466E-2,-6.340348E-2,6.1560523E-2,3.519713E-2,8.911648E-2],"categories":[],"categories_nodes":[],"categories_segments":[],"categories_sizes":[],"default_left":[0,0,0,0,0,0,0,0,0,0,0,0,0,0,0,0,0,0,0,0,0,0,0,0,0,0,0,0,0,0,0],"id":23,"left_children":[1,3,5,7,9,11,13,15,17,19,21,23,25,27,29,-1,-1,-1,-1,-1,-1,-1,-1,-1,-1,-1,-1,-1,-1,-1,-1],"loss_changes":[6.0478897E1,2.3801361E1,1.0972073E1,6.327526E0,1.0601963E1,5.4478436E0,1.3529739E0,4.9955864E0,6.4394364E0,1.3553527E1,1.0099745E1,6.193837E0,5.710349E0,2.2537684E0,1.0877647E0,0E0,0E0,0E0,0E0,0E0,0E0,0E0,0E0,0E0,0E0,0E0,0E0,0E0,0E0,0E0,0E0],"parents":[2147483647,0,0,1,1,2,2,3,3,4,4,5,5,6,6,7,7,8,8,9,9,10,10,11,11,12,12,13,13,14,14],"right_children":[2,4,6,8,10,12,14,16,18,20,22,24,26,28,30,-1,-1,-1,-1,-1,-1,-1,-1,-1,-1,-1,-1,-1,-1,-1,-1],"split_conditions":[1.4E2,1.205E2,1.575E2,3.085E1,4E1,2.889E1,5.9E1,1.53E2,4.8E1,5.3E1,4.7E1,2.782E1,2.22E2,1.665E2,6.8E1,5.4392E-2,-8.489528E-2,-6.453093E-2,1.0505358E-1,-3.4459177E-2,1.7916976E-2,1.4541046E-1,-4.7088485E-2,2.5691226E-2,-3.9148998E-2,-5.980684E-4,8.3170466E-2,-6.340348E-2,6.1560523E-2,3.519713E-2,8.911648E-2],"split_indices":[7,7,7,9,3,9,10,6,1,1,1,9,6,7,11,0,0,0,0,0,0,0,0,0,0,0,0,0,0,0,0],"split_type":[0,0,0,0,0,0,0,0,0,0,0,0,0,0,0,0,0,0,0,0,0,0,0,0,0,0,0,0,0,0,0],"sum_hessian":[5.2561664E2,3.0715482E2,2.1846179E2,8.480169E1,2.2235315E2,1.6287396E2,5.5587837E1,7.777058E1,7.0311117E0,2.1177234E2,1.0580799E1,1.2365974E2,3.9214226E1,4.380984E0,5.1206852E1,2.0201821E0,7.575039E1,3.8228657E0,3.208246E0,1.3494368E2,7.682867E1,7.0609994E0,3.5197997E0,1.07522125E2,1.6137613E1,1.1306199E1,2.7908028E1,1.2788876E0,3.102096E0,6.0262294E0,4.5180622E1],"tree_param":{"num_deleted":"0","num_feature":"12","num_nodes":"31","size_leaf_vector":"1"}},{"base_weights":[8.096797E-3,-2.1484676E-1,4.5099407E-1,-6.9509715E-1,-6.6355854E-2,3.0914113E-1,7.659698E-1,-8.5706985E-1,-1.9891465E-1,-2.8570792E-1,1.4575528E-1,1.8770786E-1,7.1788955E-1,3.819189E-1,8.532288E-1,-9.252465E-2,7.4301474E-2,5.8598142E-2,-4.7504347E-2,-7.103252E-2,5.845599E-4,-5.0892152E-2,2.2667028E-2,2.6750201E-2,-4.6309985E-2,9.22848E-3,9.760674E-2,-1.0890802E-1,6.802579E-2,-3.4740143E-3,9.103986E-2],"categories":[],"categories_nodes":[],"categories_segments":[],"categories_sizes":[],"default_left":[0,0,0,0,0,0,0,0,0,0,0,0,0,0,0,0,0,0,0,0,0,0,0,0,0,0,0,0,0,0,0],"id":24,"left_children":[1,3,5,7,9,11,13,15,17,19,21,23,25,27,29,-1,-1,-1,-1,-1,-1,-1,-1,-1,-1,-1,-1,-1,-1,-1,-1],"loss_changes":[5.0887386E1,2.440189E1,7.472904E0,6.328125E0,1.2276715E1,5.853735E0,1.4470406E0,7.304619E0,4.873556E0,1.6050285E1,7.2324243E0,5.0245476E0,4.316036E0,5.833792E0,2.1789246E0,0E0,0E0,0E0,0E0,0E0,0E0,0E0,0E0,0E0,0E0,0E0,0E0,0E0,0E0,0E0,0E0],"parents":[2147483647,0,0,1,1,2,2,3,3,4,4,5,5,6,6,7,7,8,8,9,9,10,10,11,11,12,12,13,13,14,14],"right_children":[2,4,6,8,10,12,14,16,18,20,22,24,26,28,30,-1,-1,-1,-1,-1,-1,-1,-1,-1,-1,-1,-1,-1,-1,-1,-1],"split_conditions":[1.425E2,1.205E2,1.575E2,2.723E1,1E0,2.947E1,2.13E2,3.8E1,4.1E1,4.9E1,6.2E1,3E1,2.22E2,6.8E1,8.15E1,-9.252465E-2,7.4301474E-2,5.8598142E-2,-4.7504347E-2,-7.103252E-2,5.845599E-4,-5.0892152E-2,2.2667028E-2,2.6750201E-2,-4.6309985E-2,9.22848E-3,9.760674E-2,-1.0890802E-1,6.802579E-2,-3.4740143E-3,9.103986E-2],"split_indices":[7,7,7,9,0,9,6,3,1,1,10,3,6,11,8,0,0,0,0,0,0,0,0,0,0,0,0,0,0,0,0],"split_type":[0,0,0,0,0,0,0,0,0,0,0,0,0,0,0,0,0,0,0,0,0,0,0,0,0,0,0,0,0,0,0],"sum_hessian":[5.133805E2,3.4182773E2,1.7155273E2,7.986068E1,2.6196704E2,1.1964894E2,5.1903797E1,5.9658546E1,2.0202133E1,1.2861475E2,1.3335231E2,9.3369446E1,2.62795E1,1.0605017E1,4.129878E1,5.7625004E1,2.0335426E0,4.9655175E0,1.5236615E1,5.1774403E1,7.684034E1,1.4086883E1,1.1926543E2,8.3696556E1,9.67289E0,8.073533E0,1.8205965E1,1.3412639E0,9.263753E0,2.5218225E0,3.877696E1],"tree_param":{"num_deleted":"0","num_feature":"12","num_nodes":"31","size_leaf_vector":"1"}},{"base_weights":[7.4739167E-3,-2.3650214E-1,3.5738492E-1,-3.65766E-1,2.7986312E-1,2.3535502E-1,7.409772E-1,-5.9898365E-1,-9.891096E-2,4.4462618E-1,-6.8152726E-2,1.4189056E-1,5.3548783E-1,3.545427E-1,8.3232063E-1,-7.065723E-2,7.532422E-2,-5.7728726E-2,3.2325078E-2,-1.02471046E-1,5.1402897E-2,-3.747385E-2,6.307211E-2,2.2342544E-2,-3.6376614E-2,-9.989594E-4,7.722015E-2,-9.7032934E-2,6.542538E-2,-3.204909E-2,8.736383E-2],"categories":[],"categories_nodes":[],"categories_segments":[],"categories_sizes":[],"default_left":[0,0,0,0,0,0,0,0,0,0,0,0,0,0,0,0,0,0,0,0,0,0,0,0,0,0,0,0,0,0,0],"id":25,"left_children":[1,3,5,7,9,11,13,15,17,19,21,23,25,27,29,-1,-1,-1,-1,-1,-1,-1,-1,-1,-1,-1,-1,-1,-1,-1,-1],"loss_changes":[4.3026585E1,1.9924332E1,9.51717E0,1.4749397E1,3.4720893E0,4.371298E0,1.4522839E0,1.897641E1,2.2839205E1,4.6945314E0,4.554573E0,5.121561E0,4.8222036E0,5.0846157E0,2.151764E0,0E0,0E0,0E0,0E0,0E0,0E0,0E0,0E0,0E0,0E0,0E0,0E0,0E0,0E0,0E0,0E0],"parents":[2147483647,0,0,1,1,2,2,3,3,4,4,5,5,6,6,7,7,8,8,9,9,10,10,11,11,12,12,13,13,14,14],"right_children":[2,4,6,8,10,12,14,16,18,20,22,24,26,28,30,-1,-1,-1,-1,-1,-1,-1,-1,-1,-1,-1,-1,-1,-1,-1,-1],"split_conditions":[1.4E2,9E1,1.575E2,5E1,2.57E2,2.889E1,2.13E2,4E1,7.5E1,2.149E1,3.01E2,2.782E1,2.22E2,6.8E1,5.5E1,-7.065723E-2,7.532422E-2,-5.7728726E-2,3.2325078E-2,-1.02471046E-1,5.1402897E-2,-3.747385E-2,6.307211E-2,2.2342544E-2,-3.6376614E-2,-9.989594E-4,7.722015E-2,-9.7032934E-2,6.542538E-2,-3.204909E-2,8.736383E-2],"split_indices":[7,8,7,1,6,9,6,3,10,9,6,9,6,11,10,0,0,0,0,0,0,0,0,0,0,0,0,0,0,0,0],"split_type":[0,0,0,0,0,0,0,0,0,0,0,0,0,0,0,0,0,0,0,0,0,0,0,0,0,0,0,0,0,0,0],"sum_hessian":[5.020117E2,2.9597012E2,2.0604156E2,2.3694609E2,5.9024033E1,1.5753838E2,4.8503185E1,1.2577796E2,1.1116813E2,3.9870377E1,1.9153658E1,1.2125201E2,3.6286373E1,1.0206272E1,3.8296913E1,1.1695038E2,8.827579E0,5.1942062E1,5.9226063E1,1.1774622E0,3.8692913E1,1.3635679E1,5.5179777E0,1.04896126E2,1.6355883E1,1.1271165E1,2.501521E1,1.4701095E0,8.736163E0,1.0913119E0,3.72056E1],"tree_param":{"num_deleted":"0","num_feature":"12","num_nodes":"31","size_leaf_vector":"1"}},{"base_weights":[6.9013545E-3,-3.46003E-1,2.1956052E-1,-5.281555E-1,1.5963101E-1,6.202737E-2,5.748791E-1,-7.725465E-1,-2.106965E-1,-3.2664865E-1,4.3376982E-1,-7.977787E-2,4.335794E-1,2.9608664E-1,6.798713E-1,-8.293874E-2,9.146609E-2,-7.524584E-2,1.1830921E-2,2.23058E-3,-1.6043785E-1,3.5474591E-3,8.435635E-2,-3.193696E-2,1.2546906E-2,9.065221E-2,2.7506927E-2,-6.552226E-2,6.060586E-2,3.3606783E-2,7.496801E-2],"categories":[],"categories_nodes":[],"categories_segments":[],"categories_sizes":[],"default_left":[0,0,0,0,0,0,0,0,0,0,0,0,0,0,0,0,0,0,0,0,0,0,0,0,0,0,0,0,0,0,0],"id":26,"left_children":[1,3,5,7,9,11,13,15,17,19,21,23,25,27,29,-1,-1,-1,-1,-1,-1,-1,-1,-1,-1,-1,-1,-1,-1,-1,-1],"loss_changes":[3.6906796E1,1.7115984E1,1.7139574E1,1.0402531E1,6.7727156E0,1.1294495E1,2.5540276E0,8.101784E0,1.089221E1,8.285704E0,5.232107E0,7.687865E0,4.1877775E0,8.5131E0,1.3706951E0,0E0,0E0,0E0,0E0,0E0,0E0,0E0,0E0,0E0,0E0,0E0,0E0,0E0,0E0,0E0,0E0],"parents":[2147483647,0,0,1,1,2,2,3,3,4,4,5,5,6,6,7,7,8,8,9,9,10,10,11,11,12,12,13,13,14,14],"right_children":[2,4,6,8,10,12,14,16,18,20,22,24,26,28,30,-1,-1,-1,-1,-1,-1,-1,-1,-1,-1,-1,-1,-1,-1,-1,-1],"split_conditions":[8.3E1,1.375E2,1.475E2,2.38E2,7.1E1,2.902E1,5E1,1E0,1.205E2,7E1,2E0,1E0,2.98E1,2.11E2,2.375E1,-8.293874E-2,9.146609E-2,-7.524584E-2,1.1830921E-2,2.23058E-3,-1.6043785E-1,3.5474591E-3,8.435635E-2,-3.193696E-2,1.2546906E-2,9.065221E-2,2.7506927E-2,-6.552226E-2,6.060586E-2,3.3606783E-2,7.496801E-2],"split_indices":[8,7,7,6,10,9,1,4,7,10,3,0,9,6,9,0,0,0,0,0,0,0,0,0,0,0,0,0,0,0,0],"split_type":[0,0,0,0,0,0,0,0,0,0,0,0,0,0,0,0,0,0,0,0,0,0,0,0,0,0,0,0,0,0,0],"sum_hessian":[4.8976135E2,1.839208E2,3.0584055E2,1.351787E2,4.8742104E1,2.1270898E2,9.313156E1,7.55693E1,5.960941E1,1.7502983E1,3.1239119E1,1.5452051E2,5.818847E1,2.6523123E1,6.660844E1,7.359824E1,1.9710485E0,2.2036171E1,3.757324E1,1.4520032E1,2.9829512E0,1.6392828E1,1.4846292E1,7.103865E1,8.348186E1,1.3422141E1,4.476633E1,6.244582E0,2.0278542E1,1.2223355E1,5.438508E1],"tree_param":{"num_deleted":"0","num_feature":"12","num_nodes":"31","size_leaf_vector":"1"}},{"base_weights":[6.459555E-3,-6.187989E-1,1.12152584E-1,-8.006291E-1,-1.0844701E-1,6.503193E-2,1.0913068E-1,-8.7914014E-1,6.772851E-2,6.256356E-1,-3.8817835E-1,-2.1768771E-2,5.471707E-1,7.243783E-2,-9.533109E-2,1.2656185E-1,-3.2168515E-2,-8.200734E-2,3.4948442E-2,-1.7916186E-2,1.6931368E-2,2.1877324E-2,7.176917E-2],"categories":[],"categories_nodes":[],"categories_segments":[],"categories_sizes":[],"default_left":[0,0,0,0,0,0,0,0,0,0,0,0,0,0,0,0,0,0,0,0,0,0,0],"id":27,"left_children":[1,3,5,7,9,11,-1,13,-1,15,17,19,21,-1,-1,-1,-1,-1,-1,-1,-1,-1,-1],"loss_changes":[3.1763752E1,6.3627224E0,1.8896294E1,6.5232277E0,4.229461E0,1.6470812E1,0E0,6.511837E0,0E0,3.8868847E0,4.9617844E0,1.00827265E1,3.2051373E0,0E0,0E0,0E0,0E0,0E0,0E0,0E0,0E0,0E0,0E0],"parents":[2147483647,0,0,1,1,2,2,3,3,4,4,5,5,7,7,9,9,10,10,11,11,12,12],"right_children":[2,4,6,8,10,12,-1,14,-1,16,18,20,22,-1,-1,-1,-1,-1,-1,-1,-1,-1,-1],"split_conditions":[1.205E2,2.723E1,1E0,3.8E1,4.1E1,9.6E1,1.0913068E-1,1.53E2,6.772851E-2,2.947E1,3.085E1,5.3E1,4.8E1,7.243783E-2,-9.533109E-2,1.2656185E-1,-3.2168515E-2,-8.200734E-2,3.4948442E-2,-1.7916186E-2,1.6931368E-2,2.1877324E-2,7.176917E-2],"split_indices":[7,9,4,3,1,8,0,6,0,9,9,1,1,0,0,0,0,0,0,0,0,0,0],"split_type":[0,0,0,0,0,0,0,0,0,0,0,0,0,0,0,0,0,0,0,0,0,0,0],"sum_hessian":[4.785965E2,6.850141E1,4.100951E2,5.0087322E1,1.8414087E1,3.9228333E2,1.7811758E1,4.794547E1,2.1418548E0,4.7396197E0,1.3674467E1,3.3324347E2,5.903985E1,1.7321097E0,4.621336E1,2.6281316E0,2.1114883E0,8.554288E0,5.1201787E0,1.8276433E2,1.5047914E2,2.095899E1,3.8080856E1],"tree_param":{"num_deleted":"0","num_feature":"12","num_nodes":"23","size_leaf_vector":"1"}},{"base_weights":[6.416134E-3,-3.1121543E-1,1.930178E-1,-6.754077E-1,-7.179842E-2,5.574407E-2,5.247218E-1,-5.184528E-1,-1.2048417E0,-4.790168E-1,3.277478E-1,-7.165668E-2,3.9222383E-1,3.8650137E-1,7.604495E-1,-6.292584E-2,7.733752E-2,-1.2897003E-1,-4.4557873E-2,-6.3338004E-2,3.700917E-2,5.353388E-2,-3.4129314E-2,-2.8989762E-2,1.1508142E-2,8.334786E-2,2.4658423E-2,-1.02272056E-1,4.4017628E-2,9.5379636E-2,3.247372E-2],"categories":[],"categories_nodes":[],"categories_segments":[],"categories_sizes":[],"default_left":[0,0,0,0,0,0,0,0,0,0,0,0,0,0,0,0,0,0,0,0,0,0,0,0,0,0,0,0,0,0,0],"id":28,"left_children":[1,3,5,7,9,11,13,15,17,19,21,23,25,27,29,-1,-1,-1,-1,-1,-1,-1,-1,-1,-1,-1,-1,-1,-1,-1,-1],"loss_changes":[2.8003784E1,1.519788E1,1.3521924E1,5.128702E0,1.75043E1,9.099428E0,2.5405045E0,8.382295E0,3.9673233E-1,7.2085924E0,7.73962E0,6.3233147E0,3.5392656E0,4.7519217E0,2.312004E0,0E0,0E0,0E0,0E0,0E0,0E0,0E0,0E0,0E0,0E0,0E0,0E0,0E0,0E0,0E0,0E0],"parents":[2147483647,0,0,1,1,2,2,3,3,4,4,5,5,6,6,7,7,8,8,9,9,10,10,11,11,12,12,13,13,14,14],"right_children":[2,4,6,8,10,12,14,16,18,20,22,24,26,28,30,-1,-1,-1,-1,-1,-1,-1,-1,-1,-1,-1,-1,-1,-1,-1,-1],"split_conditions":[8.3E1,7.2E1,1.475E2,7E1,5.1E1,2.902E1,1.615E2,3.085E1,8.2E1,1.395E2,2.778E1,1E0,2.98E1,5.9E1,3E0,-6.292584E-2,7.733752E-2,-1.2897003E-1,-4.4557873E-2,-6.3338004E-2,3.700917E-2,5.353388E-2,-3.4129314E-2,-2.8989762E-2,1.1508142E-2,8.334786E-2,2.4658423E-2,-1.02272056E-1,4.4017628E-2,9.5379636E-2,3.247372E-2],"split_indices":[8,10,7,10,1,9,7,9,8,7,9,0,9,10,3,0,0,0,0,0,0,0,0,0,0,0,0,0,0,0,0],"split_type":[0,0,0,0,0,0,0,0,0,0,0,0,0,0,0,0,0,0,0,0,0,0,0,0,0,0,0,0,0,0,0],"sum_hessian":[4.704601E2,1.7385611E2,2.96604E2,6.823639E1,1.0561972E2,2.1061168E2,8.5992325E1,5.4159607E1,1.4076781E1,5.2209145E1,5.3410576E1,1.533399E2,5.7271782E1,5.587139E1,3.0120935E1,5.035347E1,3.8061378E0,1.203327E1,2.0435114E0,4.4392838E1,7.81631E0,4.0915195E1,1.2495383E1,7.045116E1,8.288875E1,1.3040169E1,4.4231613E1,1.3875523E0,5.4483837E1,2.0039421E1,1.0081515E1],"tree_param":{"num_deleted":"0","num_feature":"12","num_nodes":"31","size_leaf_vector":"1"}},{"base_weights":[5.7820077E-3,-5.7179964E-1,9.7487606E-2,-7.6058084E-1,-7.948418E-2,5.391831E-2,1.0737683E-1,-8.461233E-1,6.49915E-2,5.8983433E-1,-3.507861E-1,-1.0507921E-2,5.71516E-1,6.768223E-2,-9.26499E-2,1.6585292E-1,1.338217E-3,-5.589251E-2,9.694959E-2,-4.4422116E-2,4.4646626E-3,-3.912059E-3,6.829828E-2],"categories":[],"categories_nodes":[],"categories_segments":[],"categories_sizes":[],"default_left":[0,0,0,0,0,0,0,0,0,0,0,0,0,0,0,0,0,0,0,0,0,0,0],"id":29,"left_children":[1,3,5,7,9,11,-1,13,-1,15,17,19,21,-1,-1,-1,-1,-1,-1,-1,-1,-1,-1],"loss_changes":[2.4592184E1,5.852209E0,1.6982727E1,6.0842495E0,3.61165E0,1.2829738E1,0E0,5.9738407E0,0E0,3.5391605E0,4.380575E0,8.224105E0,2.9253569E0,0E0,0E0,0E0,0E0,0E0,0E0,0E0,0E0,0E0,0E0],"parents":[2147483647,0,0,1,1,2,2,3,3,4,4,5,5,7,7,9,9,10,10,11,11,12,12],"right_children":[2,4,6,8,10,12,-1,14,-1,16,18,20,22,-1,-1,-1,-1,-1,-1,-1,-1,-1,-1],"split_conditions":[1.205E2,2.723E1,1E0,3.8E1,4.1E1,9.8E1,1.0737683E-1,1.53E2,6.49915E-2,2.815E1,3.522E1,2.202E1,4.2E1,6.768223E-2,-9.26499E-2,1.6585292E-1,1.338217E-3,-5.589251E-2,9.694959E-2,-4.4422116E-2,4.4646626E-3,-3.912059E-3,6.829828E-2],"split_indices":[7,9,4,3,1,8,0,6,0,9,9,9,1,0,0,0,0,0,0,0,0,0,0],"split_type":[0,0,0,0,0,0,0,0,0,0,0,0,0,0,0,0,0,0,0,0,0,0,0],"sum_hessian":[4.6223602E2,6.2618156E1,3.9961786E2,4.4868263E1,1.7749895E1,3.8355582E2,1.606204E1,4.267997E1,2.1882918E0,4.780938E0,1.2968956E1,3.4196994E2,4.158586E1,1.7675722E0,4.09124E1,1.0174805E0,3.7634575E0,1.1700988E1,1.2679679E0,3.7785538E1,3.0418442E2,6.5195494E0,3.506631E1],"tree_param":{"num_deleted":"0","num_feature":"12","num_nodes":"23","size_leaf_vector":"1"}},{"base_weights":[6.007501E-3,-1.4396621E-1,3.2156944E-1,-4.3502572E-1,1.0228747E-2,2.4127963E-1,8.028987E-1,-7.1062344E-1,-3.9115448E-2,-2.361754E-2,1.1093066E0,1.4542142E-1,5.8117247E-1,4.344972E-3,8.817136E-1,-7.6981775E-2,1.0468221E-1,-6.2266927E-2,3.97879E-2,-3.8968984E-2,7.3134466E-3,3.795104E-2,1.7047669E-1,2.241097E-2,-5.278933E-2,-7.4185356E-3,8.8352986E-2,9.292129E-2,3.020217E-3],"categories":[],"categories_nodes":[],"categories_segments":[],"categories_sizes":[],"default_left":[0,0,0,0,0,0,0,0,0,0,0,0,0,0,0,0,0,0,0,0,0,0,0,0,0,0,0,0,0],"id":30,"left_children":[1,3,5,7,9,11,13,15,17,19,21,23,25,-1,27,-1,-1,-1,-1,-1,-1,-1,-1,-1,-1,-1,-1,-1,-1],"loss_changes":[2.1650362E1,1.3922801E1,5.5015287E0,1.1693157E1,7.6038895E0,4.07718E0,1.1970367E0,7.3884697E0,1.1760344E1,7.062434E0,2.0066938E0,5.467713E0,5.5672827E0,0E0,7.261076E-1,0E0,0E0,0E0,0E0,0E0,0E0,0E0,0E0,0E0,0E0,0E0,0E0,0E0,0E0],"parents":[2147483647,0,0,1,1,2,2,3,3,4,4,5,5,6,6,7,7,8,8,9,9,10,10,11,11,12,12,14,14],"right_children":[2,4,6,8,10,12,14,16,18,20,22,24,26,-1,28,-1,-1,-1,-1,-1,-1,-1,-1,-1,-1,-1,-1,-1,-1],"split_conditions":[1.425E2,2.46E1,1.7E2,1E0,6.6E1,2.947E1,6.5E1,1.14E2,1.285E2,8E1,2.62E2,3E1,2.22E2,4.344972E-3,1.4E2,-7.6981775E-2,1.0468221E-1,-6.2266927E-2,3.97879E-2,-3.8968984E-2,7.3134466E-3,3.795104E-2,1.7047669E-1,2.241097E-2,-5.278933E-2,-7.4185356E-3,8.8352986E-2,9.292129E-2,3.020217E-3],"split_indices":[7,9,7,0,1,9,11,11,7,8,6,3,6,0,11,0,0,0,0,0,0,0,0,0,0,0,0,0,0],"split_type":[0,0,0,0,0,0,0,0,0,0,0,0,0,0,0,0,0,0,0,0,0,0,0,0,0,0,0,0,0],"sum_hessian":[4.554947E2,3.091243E2,1.4637038E2,1.0642134E2,2.0270296E2,1.2673173E2,1.9638653E1,6.227564E1,4.4145702E1,1.9759647E2,5.1065044E0,9.996653E1,2.6765198E1,1.992313E0,1.764634E1,6.0790073E1,1.4855628E0,1.8721066E1,2.5424637E1,4.0674004E1,1.5692245E2,3.0301237E0,2.0763805E0,9.010355E1,9.862978E0,8.688206E0,1.8076992E1,1.6627565E1,1.0187746E0],"tree_param":{"num_deleted":"0","num_feature":"12","num_nodes":"29","size_leaf_vector":"1"}},{"base_weights":[6.2231924E-3,-3.4932505E-2,1.0876527E-1,-5.5641717E-1,4.4355154E-2,-7.7215517E-1,-5.222161E-2,-1.1842255E-2,5.249516E-1,-8.7124676E-2,6.315487E-2,-5.7700075E-2,2.8506001E-2,-1.4348494E-2,1.500759E-2,5.8143742E-2,-5.277297E-2],"categories":[],"categories_nodes":[],"categories_segments":[],"categories_sizes":[],"default_left":[0,0,0,0,0,0,0,0,0,0,0,0,0,0,0,0,0],"id":31,"left_children":[1,3,-1,5,7,9,11,13,15,-1,-1,-1,-1,-1,-1,-1,-1],"loss_changes":[2.0018478E1,1.794624E1,0E0,6.189991E0,1.0192714E1,6.119749E0,3.3923173E0,7.240072E0,2.6560202E0,0E0,0E0,0E0,0E0,0E0,0E0,0E0,0E0],"parents":[2147483647,0,0,1,1,3,3,4,4,5,5,6,6,7,7,8,8],"right_children":[2,4,-1,6,8,10,12,14,16,-1,-1,-1,-1,-1,-1,-1,-1],"split_conditions":[1E0,1.205E2,1.0876527E-1,2.723E1,9.8E1,3.8E1,7.1E1,5.3E1,1E0,-8.7124676E-2,6.315487E-2,-5.7700075E-2,2.8506001E-2,-1.4348494E-2,1.500759E-2,5.8143742E-2,-5.277297E-2],"split_indices":[4,7,0,9,8,3,10,1,5,0,0,0,0,0,0,0,0],"split_type":[0,0,0,0,0,0,0,0,0,0,0,0,0,0,0,0,0],"sum_hessian":[4.4792917E2,4.3243964E2,1.5489552E1,5.627755E1,3.7616208E2,3.9041008E1,1.7236542E1,3.376546E2,3.850748E1,3.6821026E1,2.2199826E0,6.4657273E0,1.0770814E1,1.8630156E2,1.5135303E2,3.69713E1,1.5361826E0],"tree_param":{"num_deleted":"0","num_feature":"12","num_nodes":"17","size_leaf_vector":"1"}},{"base_weights":[5.78556E-3,-3.2084268E-2,1.06915615E-1,-3.8926613E-1,6.9006056E-2,-6.096047E-1,2.2552508E-1,-7.608923E-1,1.2052327E-1,-9.197161E-2,-2.4548369E-2,-4.559791E-2,6.496041E-2,-1.13547936E-1,-1.2208247E-2,4.0233363E-3,3.8990993E-2],"categories":[],"categories_nodes":[],"categories_segments":[],"categories_sizes":[],"default_left":[0,0,0,0,0,0,0,0,0,0,0,0,0,0,0,0,0],"id":32,"left_children":[1,3,-1,5,7,9,11,13,15,-1,-1,-1,-1,-1,-1,-1,-1],"loss_changes":[1.7872532E1,1.5506467E1,0E0,1.2968352E1,1.4413802E1,7.6783524E0,7.729708E0,4.5792685E0,6.824968E0,0E0,0E0,0E0,0E0,0E0,0E0,0E0,0E0],"parents":[2147483647,0,0,1,1,3,3,4,4,5,5,6,6,7,7,8,8],"right_children":[2,4,-1,6,8,10,12,14,16,-1,-1,-1,-1,-1,-1,-1,-1],"split_conditions":[1E0,8E1,1.06915615E-1,1.375E2,2.129E1,5E1,7.1E1,8.1E1,9.4E1,-9.197161E-2,-2.4548369E-2,-4.559791E-2,6.496041E-2,-1.13547936E-1,-1.2208247E-2,4.0233363E-3,3.8990993E-2],"split_indices":[4,8,0,7,9,1,10,11,8,0,0,0,0,0,0,0,0],"split_type":[0,0,0,0,0,0,0,0,0,0,0,0,0,0,0,0,0],"sum_hessian":[4.4196945E2,4.2770734E2,1.4262117E1,9.371919E1,3.3398816E2,6.8998764E1,2.4720427E1,1.8716213E1,3.1527194E2,3.6438923E1,3.2559837E1,9.453395E0,1.5267032E1,1.130794E1,7.408274E0,2.437672E2,7.150474E1],"tree_param":{"num_deleted":"0","num_feature":"12","num_nodes":"17","size_leaf_vector":"1"}},{"base_weights":[5.0455253E-3,-2.9925607E-2,1.0515236E-1,-5.065815E-1,3.749929E-2,-7.313305E-1,-2.5524333E-2,-1.0517905E-2,4.738874E-1,7.7856936E-2,-8.2729846E-2,3.3923235E-2,-5.1572084E-2,-3.817398E-3,7.154328E-2,-1.3243251E-2,5.9727974E-2],"categories":[],"categories_nodes":[],"categories_segments":[],"categories_sizes":[],"default_left":[0,0,0,0,0,0,0,0,0,0,0,0,0,0,0,0,0],"id":33,"left_children":[1,3,-1,5,7,9,11,13,15,-1,-1,-1,-1,-1,-1,-1,-1],"loss_changes":[1.5987013E1,1.3609039E1,0E0,5.654399E0,7.787088E0,5.821007E0,3.3477259E0,6.764163E0,2.8349857E0,0E0,0E0,0E0,0E0,0E0,0E0,0E0,0E0],"parents":[2147483647,0,0,1,1,3,3,4,4,5,5,6,6,7,7,8,8],"right_children":[2,4,-1,6,8,10,12,14,16,-1,-1,-1,-1,-1,-1,-1,-1],"split_conditions":[1E0,1.205E2,1.0515236E-1,2.723E1,9.8E1,1.53E2,7.9E1,6.6E1,4.2E1,7.7856936E-2,-8.2729846E-2,3.3923235E-2,-5.1572084E-2,-3.817398E-3,7.154328E-2,-1.3243251E-2,5.9727974E-2],"split_indices":[4,7,0,9,8,6,11,1,1,0,0,0,0,0,0,0,0],"split_type":[0,0,0,0,0,0,0,0,0,0,0,0,0,0,0,0,0],"sum_hessian":[4.3498526E2,4.21859E2,1.3126251E1,5.147148E1,3.7038754E2,3.4726887E1,1.6744593E1,3.3455164E2,3.58359E1,1.6502403E0,3.307665E1,9.7772665E0,6.967326E0,3.231868E2,1.1364825E1,6.0473633E0,2.9788536E1],"tree_param":{"num_deleted":"0","num_feature":"12","num_nodes":"17","size_leaf_vector":"1"}},{"base_weights":[5.0448906E-3,-2.7103975E-2,1.03461444E-1,-3.5352072E-1,6.1061747E-2,-5.670965E-1,2.0206383E-1,-7.0313215E-1,1.0832571E-1,-6.471645E-2,8.103698E-2,-4.073684E-2,5.9953887E-2,-1.0657177E-1,-4.693593E-3,-3.8587473E-2,1.4822911E-2],"categories":[],"categories_nodes":[],"categories_segments":[],"categories_sizes":[],"default_left":[0,0,0,0,0,0,0,0,0,0,0,0,0,0,0,0,0],"id":34,"left_children":[1,3,-1,5,7,9,11,13,15,-1,-1,-1,-1,-1,-1,-1,-1],"loss_changes":[1.4294704E1,1.2078355E1,0E0,1.0703882E1,1.20208645E1,7.662899E0,6.425373E0,4.564742E0,6.216036E0,0E0,0E0,0E0,0E0,0E0,0E0,0E0,0E0],"parents":[2147483647,0,0,1,1,3,3,4,4,5,5,6,6,7,7,8,8],"right_children":[2,4,-1,6,8,10,12,14,16,-1,-1,-1,-1,-1,-1,-1,-1],"split_conditions":[1E0,8E1,1.03461444E-1,1.375E2,2.129E1,3.13E2,7.1E1,1.415E2,6.2E1,-6.471645E-2,8.103698E-2,-4.073684E-2,5.9953887E-2,-1.0657177E-1,-4.693593E-3,-3.8587473E-2,1.4822911E-2],"split_indices":[4,8,0,7,9,6,10,7,10,0,0,0,0,0,0,0,0],"split_type":[0,0,0,0,0,0,0,0,0,0,0,0,0,0,0,0,0],"sum_hessian":[4.3002356E2,4.1794662E2,1.2076934E1,8.824109E1,3.2970554E2,6.3723877E1,2.4517216E1,1.8395681E1,3.1130984E2,6.072433E1,2.9995453E0,9.668306E0,1.4848909E1,1.1446667E1,6.949015E0,2.261049E1,2.8869934E2],"tree_param":{"num_deleted":"0","num_feature":"12","num_nodes":"17","size_leaf_vector":"1"}},{"base_weights":[4.441896E-3,-2.5182402E-2,1.01830244E-1,-4.6101385E-1,3.2590766E-2,-7.8294164E-1,-1.1941052E-1,-8.410573E-3,5.037201E-1,-9.160425E-2,1.1284383E-1,-5.0446328E-2,2.9930562E-2,-2.0008918E-3,1.3113455E-1,-2.4515225E-2,6.412762E-2],"categories":[],"categories_nodes":[],"categories_segments":[],"categories_sizes":[],"default_left":[0,0,0,0,0,0,0,0,0,0,0,0,0,0,0,0,0],"id":35,"left_children":[1,3,-1,5,7,9,11,13,15,-1,-1,-1,-1,-1,-1,-1,-1],"loss_changes":[1.28108835E1,1.0453642E1,0E0,5.2498913E0,7.0931954E0,7.3518257E0,4.1420126E0,5.208946E0,3.1854596E0,0E0,0E0,0E0,0E0,0E0,0E0,0E0,0E0],"parents":[2147483647,0,0,1,1,3,3,4,4,5,5,6,6,7,7,8,8],"right_children":[2,4,-1,6,8,10,12,14,16,-1,-1,-1,-1,-1,-1,-1,-1],"split_conditions":[1E0,1.205E2,1.01830244E-1,1E0,1.575E2,3.522E1,7.5E1,3.8E2,6.6E1,-9.160425E-2,1.1284383E-1,-5.0446328E-2,2.9930562E-2,-2.0008918E-3,1.3113455E-1,-2.4515225E-2,6.412762E-2],"split_indices":[4,7,0,0,7,9,10,6,10,0,0,0,0,0,0,0,0],"split_type":[0,0,0,0,0,0,0,0,0,0,0,0,0,0,0,0,0],"sum_hessian":[4.246794E2,4.1357034E2,1.1109076E1,4.7588753E1,3.659816E2,2.3834808E1,2.3753944E1,3.375845E2,2.839708E1,2.2769943E1,1.0648642E0,1.2267721E1,1.1486222E1,3.3561984E2,1.9646719E0,4.285279E0,2.41118E1],"tree_param":{"num_deleted":"0","num_feature":"12","num_nodes":"17","size_leaf_vector":"1"}},{"base_weights":[4.665617E-3,-2.2562051E-2,1.00247346E-1,-1.3212337E-1,1.9181184E-1,-4.0461636E-1,7.320212E-2,-2.7855897E-1,2.8362602E-1,-5.2605014E-2,7.8393474E-2,-2.5028793E-2,3.2355692E-2,7.126428E-3,-1.2010967E-1,8.640878E-2,2.3197858E-2],"categories":[],"categories_nodes":[],"categories_segments":[],"categories_sizes":[],"default_left":[0,0,0,0,0,0,0,0,0,0,0,0,0,0,0,0,0],"id":36,"left_children":[1,3,-1,5,7,9,11,13,15,-1,-1,-1,-1,-1,-1,-1,-1],"loss_changes":[1.147335E1,9.684674E0,0E0,1.5290292E1,6.103752E0,1.7351088E1,1.2747073E1,7.6011963E0,3.313631E0,0E0,0E0,0E0,0E0,0E0,0E0,0E0,0E0],"parents":[2147483647,0,0,1,1,3,3,4,4,5,5,6,6,7,7,8,8],"right_children":[2,4,-1,6,8,10,12,14,16,-1,-1,-1,-1,-1,-1,-1,-1],"split_conditions":[1E0,9E1,1.00247346E-1,5E1,6.8E1,4E1,7.4E1,2.69E2,1.255E2,-5.2605014E-2,7.8393474E-2,-2.5028793E-2,3.2355692E-2,7.126428E-3,-1.2010967E-1,8.640878E-2,2.3197858E-2],"split_indices":[4,8,0,1,11,3,10,6,7,0,0,0,0,0,0,0,0],"split_type":[0,0,0,0,0,0,0,0,0,0,0,0,0,0,0,0,0],"sum_hessian":[4.2047897E2,4.1026135E2,1.0217612E1,2.717567E2,1.3850462E2,1.16360695E2,1.5539603E2,2.2287935E1,1.1621669E2,1.0607995E2,1.0280744E1,6.77957E1,8.7600334E1,1.6829134E1,5.458801E0,8.210374E0,1.0800632E2],"tree_param":{"num_deleted":"0","num_feature":"12","num_nodes":"17","size_leaf_vector":"1"}},{"base_weights":[4.574773E-3,-2.0495454E-2,9.8702505E-2,-1.2095235E-1,1.9960497E-1,-3.394828E-1,8.159721E-2,1.1145479E-1,5.575943E-1,-6.646287E-2,-5.877952E-3,3.0774777E-3,8.310961E-2,2.4529194E-2,-2.2658233E-2,6.536438E-2,-8.077576E-2],"categories":[],"categories_nodes":[],"categories_segments":[],"categories_sizes":[],"default_left":[0,0,0,0,0,0,0,0,0,0,0,0,0,0,0,0,0],"id":37,"left_children":[1,3,-1,5,7,9,11,13,15,-1,-1,-1,-1,-1,-1,-1,-1],"loss_changes":[1.0291995E1,9.0373335E0,0E0,1.2444266E1,3.9810605E0,1.2294078E1,5.550522E0,4.7634115E0,3.815126E0,0E0,0E0,0E0,0E0,0E0,0E0,0E0,0E0],"parents":[2147483647,0,0,1,1,3,3,4,4,5,5,6,6,7,7,8,8],"right_children":[2,4,-1,6,8,10,12,14,16,-1,-1,-1,-1,-1,-1,-1,-1],"split_conditions":[1E0,1.425E2,9.8702505E-2,1E0,9E1,2.526E1,9.7E1,7.9E1,6.7E1,-6.646287E-2,-5.877952E-3,3.0774777E-3,8.310961E-2,2.4529194E-2,-2.2658233E-2,6.536438E-2,-8.077576E-2],"split_indices":[4,7,0,0,10,9,10,10,1,0,0,0,0,0,0,0,0],"split_type":[0,0,0,0,0,0,0,0,0,0,0,0,0,0,0,0,0],"sum_hessian":[4.160386E2,4.0664105E2,9.397553E0,2.7951636E2,1.27124695E2,1.3412886E2,1.4538751E2,1.0305908E2,2.4065613E1,6.151117E1,7.261769E1,1.3712997E2,8.257525E0,7.40251E1,2.903398E1,2.297092E1,1.0946904E0],"tree_param":{"num_deleted":"0","num_feature":"12","num_nodes":"17","size_leaf_vector":"1"}},{"base_weights":[4.4617676E-3,-1.865317E-2,9.7186446E-2,-2.996329E-1,5.3003665E-2,-7.0999235E-1,-2.7065711E-2,-6.623882E-1,9.563528E-2,-8.584509E-2,3.5682034E-2,-4.4674583E-2,3.269879E-2,-1.0336497E-1,-5.9243543E-3,-2.3168502E-2,1.511309E-2],"categories":[],"categories_nodes":[],"categories_segments":[],"categories_sizes":[],"default_left":[0,0,0,0,0,0,0,0,0,0,0,0,0,0,0,0,0],"id":38,"left_children":[1,3,-1,5,7,9,11,13,15,-1,-1,-1,-1,-1,-1,-1,-1],"loss_changes":[9.241286E0,8.146319E0,0E0,9.175625E0,9.902327E0,5.496397E0,7.640356E0,4.029808E0,5.5814247E0,0E0,0E0,0E0,0E0,0E0,0E0,0E0,0E0],"parents":[2147483647,0,0,1,1,3,3,4,4,5,5,6,6,7,7,8,8],"right_children":[2,4,-1,6,8,10,12,14,16,-1,-1,-1,-1,-1,-1,-1,-1],"split_conditions":[1E0,8E1,9.7186446E-2,4.9E1,2.129E1,1.425E2,7.5E1,8.1E1,6.8E1,-8.584509E-2,3.5682034E-2,-4.4674583E-2,3.269879E-2,-1.0336497E-1,-5.9243543E-3,-2.3168502E-2,1.511309E-2],"split_indices":[4,8,0,1,9,7,10,11,11,0,0,0,0,0,0,0,0],"split_type":[0,0,0,0,0,0,0,0,0,0,0,0,0,0,0,0,0],"sum_hessian":[4.1145795E2,4.028139E2,8.64404E0,8.120653E1,3.2160736E2,3.177034E1,4.9436188E1,1.7269762E1,3.0433762E2,2.8060701E1,3.7096379E0,2.2501759E1,2.6934431E1,1.0247944E1,7.0218186E0,4.3658615E1,2.60679E2],"tree_param":{"num_deleted":"0","num_feature":"12","num_nodes":"17","size_leaf_vector":"1"}},{"base_weights":[3.693985E-3,-1.7590584E-2,9.569093E-2,-1.9948259E-1,8.0799915E-2,-6.341783E-1,1.634373E-2,5.065064E-2,7.459185E-1,-7.38193E-2,4.9366236E-2,9.051177E-2,-6.4468905E-3,7.2401487E-3,-1.1418467E-1,9.958986E-2,-7.8243606E-2],"categories":[],"categories_nodes":[],"categories_segments":[],"categories_sizes":[],"default_left":[0,0,0,0,0,0,0,0,0,0,0,0,0,0,0,0,0],"id":39,"left_children":[1,3,-1,5,7,9,11,13,15,-1,-1,-1,-1,-1,-1,-1,-1],"loss_changes":[8.316012E0,7.194389E0,0E0,1.3247323E1,5.1962037E0,5.8587723E0,6.899989E0,6.586947E0,5.0756426E0,0E0,0E0,0E0,0E0,0E0,0E0,0E0,0E0],"parents":[2147483647,0,0,1,1,3,3,4,4,5,5,6,6,7,7,8,8],"right_children":[2,4,-1,6,8,10,12,14,16,-1,-1,-1,-1,-1,-1,-1,-1],"split_conditions":[1E0,1.32E2,9.569093E-2,2.46E1,6.6E1,9.7E1,2.496E1,6.5E1,9.1E1,-7.38193E-2,4.9366236E-2,9.051177E-2,-6.4468905E-3,7.2401487E-3,-1.1418467E-1,9.958986E-2,-7.8243606E-2],"split_indices":[4,7,0,9,1,10,9,1,10,0,0,0,0,0,0,0,0],"split_type":[0,0,0,0,0,0,0,0,0,0,0,0,0,0,0,0,0],"sum_hessian":[4.0805273E2,4.0010034E2,7.952389E0,1.4009073E2,2.600096E2,4.5835365E1,9.425536E1,2.4976416E2,1.024545E1,4.2281452E1,3.553914E0,7.0057893E0,8.724958E1,2.462126E2,3.5515685E0,9.104662E0,1.1407878E0],"tree_param":{"num_deleted":"0","num_feature":"12","num_nodes":"17","size_leaf_vector":"1"}},{"base_weights":[3.4322762E-3,-3.428917E-2,4.932628E-1,-1.0499285E-1,2.0144053E-1,-1.3634592E-1,6.226409E-1,-2.7165258E-1,7.004953E-2,-4.5490485E-1,2.8630447E-1,5.703083E-1,-1.20740496E-1,-1.005994E-1,7.446714E-1,-5.1221665E-2,1.3802475E-2,2.5703857E-2,-1.8379187E-2,1.0362319E-2,-1.1996613E-1,7.332169E-2,1.5273071E-2,7.245877E-2,5.8778124E-3,-8.814394E-2,6.6836536E-2,9.118447E-2,6.0851933E-3],"categories":[],"categories_nodes":[],"categories_segments":[],"categories_sizes":[],"default_left":[0,0,0,0,0,0,0,0,0,0,0,0,0,0,0,0,0,0,0,0,0,0,0,0,0,0,0,0,0],"id":40,"left_children":[1,3,5,7,9,11,13,15,17,19,21,23,-1,25,27,-1,-1,-1,-1,-1,-1,-1,-1,-1,-1,-1,-1,-1,-1],"loss_changes":[7.5072145E0,6.3101196E0,2.4513183E0,8.506098E0,4.9986897E0,5.057567E0,2.2176743E0,1.4778541E1,6.820099E0,4.4477E0,4.5449524E0,2.8547764E-1,0E0,3.2226734E0,2.3328676E0,0E0,0E0,0E0,0E0,0E0,0E0,0E0,0E0,0E0,0E0,0E0,0E0,0E0,0E0],"parents":[2147483647,0,0,1,1,2,2,3,3,4,4,5,5,6,6,7,7,8,8,9,9,10,10,11,11,13,13,14,14],"right_children":[2,4,6,8,10,12,14,16,18,20,22,24,-1,26,28,-1,-1,-1,-1,-1,-1,-1,-1,-1,-1,-1,-1,-1,-1],"split_conditions":[1.575E2,2.902E1,6.6E1,5.1E1,8E1,2.878E1,6.8E1,9E1,8.45E1,7.65E1,1.275E2,1.745E2,-1.20740496E-1,2.35E2,1.9E1,-5.1221665E-2,1.3802475E-2,2.5703857E-2,-1.8379187E-2,1.0362319E-2,-1.1996613E-1,7.332169E-2,1.5273071E-2,7.245877E-2,5.8778124E-3,-8.814394E-2,6.6836536E-2,9.118447E-2,6.0851933E-3],"split_indices":[7,9,10,1,8,9,11,8,8,8,7,7,0,6,3,0,0,0,0,0,0,0,0,0,0,0,0,0,0],"split_type":[0,0,0,0,0,0,0,0,0,0,0,0,0,0,0,0,0,0,0,0,0,0,0,0,0,0,0,0,0],"sum_hessian":[4.043826E2,3.763316E2,2.805099E1,2.8992688E2,8.6404724E1,4.772436E0,2.3278553E1,1.4823695E2,1.4168993E2,9.393575E0,7.7011154E1,3.1570399E0,1.6153961E0,3.3860445E0,1.989251E1,9.323735E1,5.49996E1,8.158141E1,6.010851E1,5.859855E0,3.5337198E0,1.668778E1,6.032337E1,2.1055026E0,1.0515373E0,1.6074762E0,1.7785684E0,1.5716773E1,4.1757355E0],"tree_param":{"num_deleted":"0","num_feature":"12","num_nodes":"29","size_leaf_vector":"1"}},{"base_weights":[3.0776781E-3,-1.6670344E-2,9.430494E-2,-3.821528E-1,2.6944198E-2,-6.24839E-1,3.895837E-2,-8.22419E-2,1.6466567E-1,-7.6875925E-2,8.365028E-2,7.531094E-2,-2.6950812E-2,-4.3843184E-2,2.1703637E-3,-5.1925547E-2,2.3890877E-2],"categories":[],"categories_nodes":[],"categories_segments":[],"categories_sizes":[],"default_left":[0,0,0,0,0,0,0,0,0,0,0,0,0,0,0,0,0],"id":41,"left_children":[1,3,-1,5,7,9,11,13,15,-1,-1,-1,-1,-1,-1,-1,-1],"loss_changes":[7.4868197E0,6.3096433E0,0E0,4.3367805E0,5.336518E0,6.285512E0,3.8088424E0,7.3445916E0,8.089382E0,0E0,0E0,0E0,0E0,0E0,0E0,0E0,0E0],"parents":[2147483647,0,0,1,1,3,3,4,4,5,5,6,6,7,7,8,8],"right_children":[2,4,-1,6,8,10,12,14,16,-1,-1,-1,-1,-1,-1,-1,-1],"split_conditions":[1E0,1.205E2,9.430494E-2,2.723E1,8E1,3.8E1,4.1E1,2.379E1,6.4E1,-7.6875925E-2,8.365028E-2,7.531094E-2,-2.6950812E-2,-4.3843184E-2,2.1703637E-3,-5.1925547E-2,2.3890877E-2],"split_indices":[4,7,0,9,11,3,1,9,10,0,0,0,0,0,0,0,0],"split_type":[0,0,0,0,0,0,0,0,0,0,0,0,0,0,0,0,0],"sum_hessian":[4.014816E2,3.9418243E2,7.299179E0,4.119695E1,3.5298547E2,2.5828314E1,1.5368632E1,1.971149E2,1.5587059E2,2.3944115E1,1.8842E0,4.2010484E0,1.1167584E1,4.3801727E1,1.5331317E2,1.4676637E1,1.4119394E2],"tree_param":{"num_deleted":"0","num_feature":"12","num_nodes":"17","size_leaf_vector":"1"}},{"base_weights":[2.8780724E-3,-1.5311316E-2,9.2817545E-2,-5.155976E-2,3.8674146E-1,-7.949107E-2,5.441715E-1,6.648729E-1,4.8517004E-2,-2.1165872E-2,6.4837374E-3,1.3960898E-1,-7.6441453E-3,9.316996E-2,2.4017474E-2,-1.0876526E-1,2.7005354E-2],"categories":[],"categories_nodes":[],"categories_segments":[],"categories_sizes":[],"default_left":[0,0,0,0,0,0,0,0,0,0,0,0,0,0,0,0,0],"id":42,"left_children":[1,3,-1,5,7,9,11,13,15,-1,-1,-1,-1,-1,-1,-1,-1],"loss_changes":[6.739922E0,5.7458634E0,0E0,6.054816E0,3.0354528E0,6.6133575E0,8.728828E0,1.7951894E0,4.2692003E0,0E0,0E0,0E0,0E0,0E0,0E0,0E0,0E0],"parents":[2147483647,0,0,1,1,3,3,4,4,5,5,6,6,7,7,8,8],"right_children":[2,4,-1,6,8,10,12,14,16,-1,-1,-1,-1,-1,-1,-1,-1],"split_conditions":[1E0,9.8E1,9.2817545E-2,1.15E2,1.02E2,1E0,1.19E2,2.35E2,4.2E1,-2.1165872E-2,6.4837374E-3,1.3960898E-1,-7.6441453E-3,9.316996E-2,2.4017474E-2,-1.0876526E-1,2.7005354E-2],"split_indices":[4,8,0,11,8,0,11,6,1,0,0,0,0,0,0,0,0],"split_type":[0,0,0,0,0,0,0,0,0,0,0,0,0,0,0,0,0],"sum_hessian":[3.986122E2,3.918919E2,6.720313E0,3.6028128E2,3.1610634E1,3.4497348E2,1.5307777E1,1.6816324E1,1.479431E1,1.7982951E2,1.6514397E2,5.924987E0,9.382791E0,9.594537E0,7.2217875E0,1.7760575E0,1.3018252E1],"tree_param":{"num_deleted":"0","num_feature":"12","num_nodes":"17","size_leaf_vector":"1"}},{"base_weights":[3.3824565E-3,-2.0032728E-2,6.6558796E-1,-3.427342E-2,8.922958E-2,-2.8394032E-2,7.869848E-1,-2.6113874E-1,2.1917202E-2,9.301359E-2,1.1510979E-1,-5.9444882E-2,1.5899707E-3,-6.356698E-2,6.0583153E-3,5.7299264E-2,-4.3511942E-2],"categories":[],"categories_nodes":[],"categories_segments":[],"categories_sizes":[],"default_left":[0,0,0,0,0,0,0,0,0,0,0,0,0,0,0,0,0],"id":43,"left_children":[1,3,5,7,-1,-1,9,11,13,-1,15,-1,-1,-1,-1,-1,-1],"loss_changes":[6.1879244E0,5.0401907E0,1.7944674E0,4.8577933E0,0E0,0E0,1.0806718E0,6.9937043E0,7.818595E0,0E0,1.0833046E0,0E0,0E0,0E0,0E0,0E0,0E0],"parents":[2147483647,0,0,1,1,2,2,3,3,6,6,7,7,8,8,10,10],"right_children":[2,4,6,8,-1,-1,10,12,14,-1,16,-1,-1,-1,-1,-1,-1],"split_conditions":[1.7E2,1E0,6.5E1,8E1,8.922958E-2,-2.8394032E-2,3.127E1,7.4E1,2.129E1,9.301359E-2,7.9E1,-5.9444882E-2,1.5899707E-3,-6.356698E-2,6.0583153E-3,5.7299264E-2,-4.3511942E-2],"split_indices":[7,4,11,8,0,0,9,10,9,0,11,0,0,0,0,0,0],"split_type":[0,0,0,0,0,0,0,0,0,0,0,0,0,0,0,0,0],"sum_hessian":[3.972152E2,3.8458624E2,1.2628988E1,3.7962305E2,4.963167E0,1.279806E0,1.1349182E1,7.463651E1,3.0498654E2,9.0389385E0,2.3102434E0,3.3357616E1,4.1278896E1,1.6079775E1,2.8890677E2,1.2383543E0,1.071889E0],"tree_param":{"num_deleted":"0","num_feature":"12","num_nodes":"17","size_leaf_vector":"1"}},{"base_weights":[3.2636875E-3,-7.8304455E-2,1.7932877E-1,-2.606594E-1,8.548962E-2,9.8885305E-2,5.186912E-1,-3.3770254E-1,6.4089435E-1,1.9951835E-2,6.826046E-1,2.3162243E-1,-2.3476887E-1,6.143089E-1,-7.166504E-2,-4.221697E-2,4.4707756E-2,-1.0125827E-1,9.765985E-2,6.0732854E-3,-1.0483996E-1,1.5007119E-1,1.3060211E-2,-1.5621944E-2,3.7184305E-2,-7.227244E-2,2.703715E-2,1.03530645E-1,3.1632524E-2],"categories":[],"categories_nodes":[],"categories_segments":[],"categories_sizes":[],"default_left":[0,0,0,0,0,0,0,0,0,0,0,0,0,0,0,0,0,0,0,0,0,0,0,0,0,0,0,0,0],"id":44,"left_children":[1,3,5,7,9,11,13,15,17,19,21,23,25,27,-1,-1,-1,-1,-1,-1,-1,-1,-1,-1,-1,-1,-1,-1,-1],"loss_changes":[5.7000933E0,8.124799E0,3.379086E0,9.14948E0,5.6083794E0,4.6078453E0,3.2565856E0,8.086277E0,6.800733E0,5.74863E0,6.206902E0,4.085519E0,7.5303435E0,2.5162792E0,0E0,0E0,0E0,0E0,0E0,0E0,0E0,0E0,0E0,0E0,0E0,0E0,0E0,0E0,0E0],"parents":[2147483647,0,0,1,1,2,2,3,3,4,4,5,5,6,6,7,7,8,8,9,9,10,10,11,11,12,12,13,13],"right_children":[2,4,6,8,10,12,14,16,18,20,22,24,26,28,-1,-1,-1,-1,-1,-1,-1,-1,-1,-1,-1,-1,-1,-1,-1],"split_conditions":[1.425E2,1E0,9E1,3.397E1,4E1,7.9E1,6.7E1,9.8E1,4.2E1,3.266E1,2.13E2,6.6E1,8.3E1,7.8E1,-7.166504E-2,-4.221697E-2,4.4707756E-2,-1.0125827E-1,9.765985E-2,6.0732854E-3,-1.0483996E-1,1.5007119E-1,1.3060211E-2,-1.5621944E-2,3.7184305E-2,-7.227244E-2,2.703715E-2,1.03530645E-1,3.1632524E-2],"split_indices":[7,0,10,9,3,10,1,11,1,9,6,10,11,11,0,0,0,0,0,0,0,0,0,0,0,0,0,0,0],"split_type":[0,0,0,0,0,0,0,0,0,0,0,0,0,0,0,0,0,0,0,0,0,0,0,0,0,0,0,0,0],"sum_hessian":[3.9492865E2,2.7027145E2,1.246572E2,1.2760978E2,1.4266168E2,1.0181425E2,2.2842958E1,1.1813947E2,9.4703045E0,1.2948334E2,1.317834E1,7.3056206E1,2.8758036E1,2.1668499E1,1.1744595E0,1.0707669E2,1.1062783E1,1.2579756E0,8.212329E0,1.2563092E2,3.85242E0,4.616979E0,8.561361E0,1.9368896E1,5.3687313E1,1.440874E1,1.4349296E1,7.9550557E0,1.3713443E1],"tree_param":{"num_deleted":"0","num_feature":"12","num_nodes":"29","size_leaf_vector":"1"}},{"base_weights":[3.3651982E-3,-1.2397646E-2,9.016465E-2,-3.280495E-2,5.9871924E-1,-2.9853705E-1,2.0998538E-2,-8.101843E-2,8.5490155E-1,8.209747E-2,-4.2122643E-2,-8.780139E-2,3.7583278E-3,2.488139E-2,1.1593657E-1],"categories":[],"categories_nodes":[],"categories_segments":[],"categories_sizes":[],"default_left":[0,0,0,0,0,0,0,0,0,0,0,0,0,0,0],"id":45,"left_children":[1,3,-1,5,7,9,11,-1,13,-1,-1,-1,-1,-1,-1],"loss_changes":[5.580044E0,4.8522525E0,0E0,5.3810077E0,5.2309566E0,9.049046E0,4.7081747E0,0E0,1.7645988E0,0E0,0E0,0E0,0E0,0E0,0E0],"parents":[2147483647,0,0,1,1,3,3,4,4,5,5,6,6,8,8],"right_children":[2,4,-1,6,8,10,12,-1,14,-1,-1,-1,-1,-1,-1],"split_conditions":[1E0,6.6E1,9.016465E-2,7.9E1,2.264E1,6.7E1,1.978E1,-8.101843E-2,2.51E2,8.209747E-2,-4.2122643E-2,-8.780139E-2,3.7583278E-3,2.488139E-2,1.1593657E-1],"split_indices":[4,1,0,8,9,11,9,0,6,0,0,0,0,0,0],"split_type":[0,0,0,0,0,0,0,0,0,0,0,0,0,0,0],"sum_hessian":[3.9229626E2,3.8650024E2,5.796024E0,3.7492648E2,1.15737705E1,6.236432E1,3.1256216E2,1.4479692E0,1.0125801E1,5.597447E0,5.6766872E1,4.720781E0,3.0784137E2,3.9934258E0,6.1323752E0],"tree_param":{"num_deleted":"0","num_feature":"12","num_nodes":"15","size_leaf_vector":"1"}},{"base_weights":[3.309074E-3,-1.7791282E-2,6.360397E-1,-3.0135762E-2,9.6748286E-1,-6.355895E-2,8.2732713E-1,-1.0803679E-2,-8.49856E-1,-4.7178958E-2,1.484632E-1,6.445467E-2,-9.615583E-2,1.9517926E-2,9.067931E-2,-3.1054388E-3,6.081536E-2,-1.16489194E-1,3.299354E-2],"categories":[],"categories_nodes":[],"categories_segments":[],"categories_sizes":[],"default_left":[0,0,0,0,0,0,0,0,0,0,0,0,0,0,0,0,0,0,0],"id":46,"left_children":[1,3,5,7,9,11,13,15,17,-1,-1,-1,-1,-1,-1,-1,-1,-1,-1],"loss_changes":[5.238634E0,4.6494236E0,1.7471738E0,5.9514914E0,4.2215986E0,2.9391713E0,3.2611942E-1,4.637629E0,3.6006665E0,0E0,0E0,0E0,0E0,0E0,0E0,0E0,0E0,0E0,0E0],"parents":[2147483647,0,0,1,1,2,2,3,3,4,4,5,5,6,6,7,7,8,8],"right_children":[2,4,6,8,10,12,14,16,18,-1,-1,-1,-1,-1,-1,-1,-1,-1,-1],"split_conditions":[1.7E2,3.66E2,2.13E2,3.33E2,2.338E1,1E0,6.3E1,3.11E2,9.55E1,-4.7178958E-2,1.484632E-1,6.445467E-2,-9.615583E-2,1.9517926E-2,9.067931E-2,-3.1054388E-3,6.081536E-2,-1.16489194E-1,3.299354E-2],"split_indices":[7,6,6,6,9,2,10,6,8,0,0,0,0,0,0,0,0,0,0],"split_type":[0,0,0,0,0,0,0,0,0,0,0,0,0,0,0,0,0,0,0],"sum_hessian":[3.9053476E2,3.7887198E2,1.1662775E1,3.7514127E2,3.7307231E0,2.6475565E0,9.015219E0,3.674877E2,7.6535606E0,1.0093427E0,2.7213802E0,1.6380976E0,1.0094589E0,1.392676E0,7.622543E0,3.5676508E2,1.0722618E1,6.0505342E0,1.6030264E0],"tree_param":{"num_deleted":"0","num_feature":"12","num_nodes":"19","size_leaf_vector":"1"}},{"base_weights":[3.4945433E-3,-1.0892482E-2,8.854438E-2,-1.2797335E-1,9.0029396E-2,-2.7704138E-1,2.3917562E-1,-1.3099056E-1,2.422438E-1,-3.5853848E-2,4.9419787E-2,9.576543E-2,1.30402325E-2,-4.544835E-2,1.1568301E-2,-2.8428992E-2,3.552785E-2],"categories":[],"categories_nodes":[],"categories_segments":[],"categories_sizes":[],"default_left":[0,0,0,0,0,0,0,0,0,0,0,0,0,0,0,0,0],"id":47,"left_children":[1,3,-1,5,7,9,11,13,15,-1,-1,-1,-1,-1,-1,-1,-1],"loss_changes":[4.9657207E0,4.564358E0,0E0,9.851364E0,7.013289E0,8.198757E0,3.9519062E0,6.8578334E0,7.4358554E0,0E0,0E0,0E0,0E0,0E0,0E0,0E0,0E0],"parents":[2147483647,0,0,1,1,3,3,4,4,5,5,6,6,7,7,8,8],"right_children":[2,4,-1,6,8,10,12,14,16,-1,-1,-1,-1,-1,-1,-1,-1],"split_conditions":[1E0,5E1,8.854438E-2,9.2E1,7.4E1,4E1,1.275E2,1.38E2,7.1E1,-3.5853848E-2,4.9419787E-2,9.576543E-2,1.30402325E-2,-4.544835E-2,1.1568301E-2,-2.8428992E-2,3.552785E-2],"split_indices":[4,1,0,8,10,3,7,7,11,0,0,0,0,0,0,0,0],"split_type":[0,0,0,0,0,0,0,0,0,0,0,0,0,0,0,0,0],"sum_hessian":[3.8959204E2,3.8431052E2,5.281515E0,1.7778807E2,2.0652245E2,1.2662274E2,5.1165325E1,8.428194E1,1.2224051E2,1.1500522E2,1.1617523E1,5.7014556E0,4.546387E1,3.609878E1,4.8183155E1,2.1336521E1,1.0090399E2],"tree_param":{"num_deleted":"0","num_feature":"12","num_nodes":"17","size_leaf_vector":"1"}},{"base_weights":[3.6492124E-3,-9.692167E-3,8.70324E-2,-1.9813698E-2,1.0735519E0,-1.2623975E-1,9.026316E-2,1.4867572E-1,1.0134093E-3,-2.0193202E-2,4.679495E-2,-6.763658E-2,1.3792726E-2],"categories":[],"categories_nodes":[],"categories_segments":[],"categories_sizes":[],"default_left":[0,0,0,0,0,0,0,0,0,0,0,0,0],"id":48,"left_children":[1,3,-1,5,7,9,11,-1,-1,-1,-1,-1,-1],"loss_changes":[4.4802756E0,4.2081814E0,0E0,4.4551644E0,1.5462546E0,8.787183E0,6.9280677E0,0E0,0E0,0E0,0E0,0E0,0E0],"parents":[2147483647,0,0,1,1,3,3,4,4,5,5,6,6],"right_children":[2,4,-1,6,8,10,12,-1,-1,-1,-1,-1,-1],"split_conditions":[1E0,3.8E2,8.70324E-2,1E0,1E0,9.8E1,6E1,1.4867572E-1,1.0134093E-3,-2.0193202E-2,4.679495E-2,-6.763658E-2,1.3792726E-2],"split_indices":[4,6,0,0,2,11,10,0,0,0,0,0,0],"split_type":[0,0,0,0,0,0,0,0,0,0,0,0,0],"sum_hessian":[3.8574915E2,3.8087488E2,4.874277E0,3.7832166E2,2.5532234E0,1.9227592E2,1.8604573E2,1.5520575E0,1.0011659E0,1.7113554E2,2.1140373E1,1.011798E1,1.7592775E2],"tree_param":{"num_deleted":"0","num_feature":"12","num_nodes":"13","size_leaf_vector":"1"}},{"base_weights":[3.885789E-3,-1.4817212E-2,6.0324794E-1,-6.778472E-1,8.644522E-4,8.962845E-2,5.040367E-2,4.8821714E-2,-9.031588E-2,1.3987567E-1,-6.766981E-3,5.241936E-1,-8.803205E-2,-1.8026605E-3,8.871847E-2,2.1522583E-3,6.877258E-2],"categories":[],"categories_nodes":[],"categories_segments":[],"categories_sizes":[],"default_left":[0,0,0,0,0,0,0,0,0,0,0,0,0,0,0,0,0],"id":49,"left_children":[1,3,5,7,9,-1,11,-1,-1,-1,13,15,-1,-1,-1,-1,-1],"loss_changes":[4.3396792E0,3.906043E0,1.8526344E0,2.7214012E0,3.9346008E0,0E0,2.718268E0,0E0,0E0,0E0,3.7094054E0,3.1550682E-1,0E0,0E0,0E0,0E0,0E0],"parents":[2147483647,0,0,1,1,2,2,3,3,4,4,6,6,10,10,11,11],"right_children":[2,4,6,8,10,-1,12,-1,-1,-1,14,16,-1,-1,-1,-1,-1],"split_conditions":[1.7E2,1.09E2,1.86E2,6.1E1,4.7E1,8.962845E-2,4E0,4.8821714E-2,-9.031588E-2,1.3987567E-1,3.66E2,1.93E2,-8.803205E-2,-1.8026605E-3,8.871847E-2,2.1522583E-3,6.877258E-2],"split_indices":[7,7,7,8,11,0,3,0,0,0,6,7,0,0,0,0,0],"split_type":[0,0,0,0,0,0,0,0,0,0,0,0,0,0,0,0,0],"sum_hessian":[3.8533276E2,3.7461813E2,1.0714622E1,7.6799483E0,3.669382E2,6.5967655E0,4.117856E0,1.0546939E0,6.6252546E0,1.0025725E0,3.6593564E2,3.0182102E0,1.099646E0,3.6235153E2,3.5841053E0,1.0186522E0,1.9995581E0],"tree_param":{"num_deleted":"0","num_feature":"12","num_nodes":"17","size_leaf_vector":"1"}},{"base_weights":[4.212177E-3,-1.4407874E-2,5.634426E-1,-1.4349558E-4,-9.91569E-1,-7.8921564E-2,8.064367E-1,-6.709953E-2,1.9752172E-1,-1.8164285E0,1.3303705E-1,2.5072342E-1,1.0895022E0,-2.3166655E-2,7.324222E-3,9.111695E-2,1.4123231E-2,-2.1780281E-1,-5.7144966E-2,-3.4915637E-2,5.6644123E-2,-7.90411E-2,7.544899E-2,1.2620325E-1,9.589552E-3],"categories":[],"categories_nodes":[],"categories_segments":[],"categories_sizes":[],"default_left":[0,0,0,0,0,0,0,0,0,0,0,0,0,0,0,0,0,0,0,0,0,0,0,0,0],"id":50,"left_children":[1,3,5,7,9,-1,11,13,15,17,19,21,23,-1,-1,-1,-1,-1,-1,-1,-1,-1,-1,-1,-1],"loss_changes":[4.0190163E0,5.209391E0,4.724263E0,4.90184E0,5.2298217E0,0E0,1.4630585E0,6.4065423E0,3.6358862E0,1.8257236E-1,8.6798763E-1,3.231257E0,1.0813112E0,0E0,0E0,0E0,0E0,0E0,0E0,0E0,0E0,0E0,0E0,0E0,0E0],"parents":[2147483647,0,0,1,1,2,2,3,3,4,4,6,6,7,7,8,8,9,9,10,10,11,11,12,12],"right_children":[2,4,6,8,10,-1,12,14,16,18,20,22,24,-1,-1,-1,-1,-1,-1,-1,-1,-1,-1,-1,-1],"split_conditions":[6.6E1,6.5E1,2.264E1,9.2E1,7.9E1,-7.8921564E-2,2.51E2,5E1,1.255E2,2.35E2,8.3E1,7.75E1,8.95E1,-2.3166655E-2,7.324222E-3,9.111695E-2,1.4123231E-2,-2.1780281E-1,-5.7144966E-2,-3.4915637E-2,5.6644123E-2,-7.90411E-2,7.544899E-2,1.2620325E-1,9.589552E-3],"split_indices":[1,1,9,8,11,0,6,1,7,6,8,8,8,0,0,0,0,0,0,0,0,0,0,0,0],"split_type":[0,0,0,0,0,0,0,0,0,0,0,0,0,0,0,0,0,0,0,0,0,0,0,0,0],"sum_hessian":[3.8418552E2,3.7274878E2,1.143675E1,3.6837152E2,4.377258E0,1.3993284E0,1.0037421E1,2.7565738E2,9.271413E1,2.1702707E0,2.2069874E0,4.0237503E0,6.0136714E0,1.2657856E2,1.4907883E2,5.6679215E0,8.70462E1,1.1010305E0,1.0692402E0,1.1367061E0,1.0702811E0,1.1265357E0,2.897215E0,4.893763E0,1.1199081E0],"tree_param":{"num_deleted":"0","num_feature":"12","num_nodes":"25","size_leaf_vector":"1"}},{"base_weights":[3.6087036E-3,-8.640797E-3,8.541285E-2,-3.0414984E-1,2.3713307E-2,-6.5308076E-1,-2.4950426E-2,1.3487898E-2,1.054956E0,-8.337947E-2,1.04609445E-1,4.2825144E-2,-4.548354E-2,-5.5494806E-4,5.5818137E-2,1.4531824E-1,2.4930082E-2],"categories":[],"categories_nodes":[],"categories_segments":[],"categories_sizes":[],"default_left":[0,0,0,0,0,0,0,0,0,0,0,0,0,0,0,0,0],"id":51,"left_children":[1,3,-1,5,7,9,11,13,15,-1,-1,-1,-1,-1,-1,-1,-1],"loss_changes":[3.999868E0,3.6285353E0,0E0,3.6320627E0,3.5954237E0,5.9714093E0,4.4503517E0,3.5283802E0,7.1186066E-1,0E0,0E0,0E0,0E0,0E0,0E0,0E0,0E0],"parents":[2147483647,0,0,1,1,3,3,4,4,5,5,6,6,7,7,8,8],"right_children":[2,4,-1,6,8,10,12,14,16,-1,-1,-1,-1,-1,-1,-1,-1],"split_conditions":[1E0,1.205E2,8.541285E-2,1E0,3.8E2,3.522E1,7.95E1,6.6E1,1.335E2,-8.337947E-2,1.04609445E-1,4.2825144E-2,-4.548354E-2,-5.5494806E-4,5.5818137E-2,1.4531824E-1,2.4930082E-2],"split_indices":[4,7,0,0,6,9,8,1,7,0,0,0,0,0,0,0,0],"split_type":[0,0,0,0,0,0,0,0,0,0,0,0,0,0,0,0,0],"sum_hessian":[3.8221344E2,3.777626E2,4.4508357E0,3.644928E1,3.4131332E2,1.5606215E1,2.0843065E1,3.3896536E2,2.3479724E0,1.4566323E1,1.039891E0,1.0148213E1,1.0694852E1,3.2847476E2,1.0490588E1,1.0334313E0,1.3145412E0],"tree_param":{"num_deleted":"0","num_feature":"12","num_nodes":"17","size_leaf_vector":"1"}},{"base_weights":[4.0095956E-3,-1.2672515E-2,5.710818E-1,-3.2705463E-2,4.2128554E-1,8.809309E-2,2.56379E-2,-4.2358965E-1,-2.4933228E-3,1.2349629E0,-1.9911389E-1,4.9707952E-1,-8.1649624E-2,6.835812E-2,-5.4672163E-2,-1.3406626E-3,1.1642625E-1,8.2177494E-4,1.4551999E-1,-9.37877E-2,4.8602797E-2,6.6349536E-2,1.5994983E-3],"categories":[],"categories_nodes":[],"categories_segments":[],"categories_sizes":[],"default_left":[0,0,0,0,0,0,0,0,0,0,0,0,0,0,0,0,0,0,0,0,0,0,0],"id":52,"left_children":[1,3,5,7,9,-1,11,13,15,17,19,21,-1,-1,-1,-1,-1,-1,-1,-1,-1,-1,-1],"loss_changes":[3.6186004E0,3.2461922E0,1.8248379E0,4.207149E0,8.5646515E0,0E0,2.3869915E0,3.858323E0,4.24024E0,1.9516525E0,5.6243186E0,2.9527265E-1,0E0,0E0,0E0,0E0,0E0,0E0,0E0,0E0,0E0,0E0,0E0],"parents":[2147483647,0,0,1,1,2,2,3,3,4,4,6,6,7,7,8,8,9,9,10,10,11,11],"right_children":[2,4,6,8,10,-1,12,14,16,18,20,22,-1,-1,-1,-1,-1,-1,-1,-1,-1,-1,-1],"split_conditions":[1.7E2,1.15E2,1.86E2,2.134E1,1.19E2,8.809309E-2,4E0,1.62E2,3.8E2,1.265E2,5.6E1,2.64E2,-8.1649624E-2,6.835812E-2,-5.4672163E-2,-1.3406626E-3,1.1642625E-1,8.2177494E-4,1.4551999E-1,-9.37877E-2,4.8602797E-2,6.6349536E-2,1.5994983E-3],"split_indices":[7,11,7,9,11,0,3,6,6,7,1,6,0,0,0,0,0,0,0,0,0,0,0],"split_type":[0,0,0,0,0,0,0,0,0,0,0,0,0,0,0,0,0,0,0,0,0,0,0],"sum_hessian":[3.8075247E2,3.7082132E2,9.931156E0,3.5534216E2,1.5479145E1,5.941124E0,3.990032E0,2.4560345E1,3.3078183E2,6.267927E0,9.211218E0,2.8206952E0,1.1693369E0,2.0025272E0,2.2557817E1,3.2869586E2,2.0859623E0,1.1118894E0,5.156038E0,4.254677E0,4.9565406E0,1.8140252E0,1.0066699E0],"tree_param":{"num_deleted":"0","num_feature":"12","num_nodes":"23","size_leaf_vector":"1"}},{"base_weights":[4.4853017E-3,-6.761913E-3,8.376545E-2,-6.409595E-1,6.757795E-3,5.02818E-2,-8.8380516E-2,8.1300515E-1,-5.488532E-3,-5.4120995E-2,1.7394994E-1,-3.8454887E-2,2.2162942E-3],"categories":[],"categories_nodes":[],"categories_segments":[],"categories_sizes":[],"default_left":[0,0,0,0,0,0,0,0,0,0,0,0,0],"id":53,"left_children":[1,3,-1,5,7,-1,-1,9,11,-1,-1,-1,-1],"loss_changes":[3.5755215E0,3.2356942E0,0E0,2.6322713E0,3.6576347E0,0E0,0E0,7.895562E0,3.839042E0,0E0,0E0,0E0,0E0],"parents":[2147483647,0,0,1,1,3,3,4,4,7,7,8,8],"right_children":[2,4,-1,6,8,-1,-1,10,12,-1,-1,-1,-1],"split_conditions":[1E0,1.09E2,8.376545E-2,1.66E2,1.115E2,5.02818E-2,-8.8380516E-2,7.5E1,1.205E2,-5.4120995E-2,1.7394994E-1,-3.8454887E-2,2.2162942E-3],"split_indices":[4,7,0,6,7,0,0,10,7,0,0,0,0],"split_type":[0,0,0,0,0,0,0,0,0,0,0,0,0],"sum_hessian":[3.799541E2,3.7587198E2,4.0821304E0,6.876827E0,3.6899515E2,1.0168842E0,5.8599424E0,4.542584E0,3.6445258E2,2.014269E0,2.5283148E0,2.3900837E1,3.4055173E2],"tree_param":{"num_deleted":"0","num_feature":"12","num_nodes":"13","size_leaf_vector":"1"}},{"base_weights":[4.2363736E-3,1.2774217E-1,-2.5842616E-3,-2.0085019E-1,4.3387003E-2,-4.055389E-1,1.9506203E-1,-1.0121654E0,6.0352705E-2,-5.032725E-2,8.312618E-2,-1.6502425E-2,6.0191672E-2,-1.2441448E-1,-1.4563351E-2,-2.155597E-2,1.0726186E-2],"categories":[],"categories_nodes":[],"categories_segments":[],"categories_sizes":[],"default_left":[0,0,0,0,0,0,0,0,0,0,0,0,0,0,0,0,0],"id":54,"left_children":[1,-1,3,5,7,9,11,13,15,-1,-1,-1,-1,-1,-1,-1,-1],"loss_changes":[3.3011997E0,0E0,3.4607942E0,5.870653E0,5.5817895E0,6.1521454E0,3.7665062E0,8.1038857E-1,3.9622078E0,0E0,0E0,0E0,0E0,0E0,0E0,0E0,0E0],"parents":[2147483647,0,0,2,2,3,3,4,4,5,5,6,6,7,7,8,8],"right_children":[2,-1,4,6,8,10,12,14,16,-1,-1,-1,-1,-1,-1,-1,-1],"split_conditions":[4.7E1,1.2774217E-1,8E1,1.375E2,1.978E1,3.13E2,1E0,5.8E1,6.8E1,-5.032725E-2,8.312618E-2,-1.6502425E-2,6.0191672E-2,-1.2441448E-1,-1.4563351E-2,-2.155597E-2,1.0726186E-2],"split_indices":[11,0,8,7,9,6,2,1,11,0,0,0,0,0,0,0,0],"split_type":[0,0,0,0,0,0,0,0,0,0,0,0,0,0,0,0,0],"sum_hessian":[3.7877017E2,1.0256608E0,3.777445E2,7.046639E1,3.072781E2,4.6434956E1,2.4031433E1,3.9327908E0,3.033453E2,4.358398E1,2.8509774E0,1.306376E1,1.0967673E1,2.7585294E0,1.1742615E0,4.3556644E1,2.5978867E2],"tree_param":{"num_deleted":"0","num_feature":"12","num_nodes":"17","size_leaf_vector":"1"}},{"base_weights":[3.858083E-3,-6.6603906E-3,8.23451E-2,-9.684128E-2,8.662113E-2,-1.624058E-1,4.2321336E-1,1.5756589E-1,-3.5770375E-1,-1.0168214E-1,-1.0481402E-2,-1.2279184E-1,6.2523864E-2,1.0267284E-2,7.751096E-2,-6.413287E-2,1.0586008E-1],"categories":[],"categories_nodes":[],"categories_segments":[],"categories_sizes":[],"default_left":[0,0,0,0,0,0,0,0,0,0,0,0,0,0,0,0,0],"id":55,"left_children":[1,3,-1,5,7,9,11,13,15,-1,-1,-1,-1,-1,-1,-1,-1],"loss_changes":[3.2599401E0,3.15218E0,0E0,6.563861E0,5.863714E0,8.253006E0,7.974198E0,5.3292303E0,1.0991039E1,0E0,0E0,0E0,0E0,0E0,0E0,0E0,0E0],"parents":[2147483647,0,0,1,1,3,3,4,4,5,5,6,6,7,7,8,8],"right_children":[2,4,-1,6,8,10,12,14,16,-1,-1,-1,-1,-1,-1,-1,-1],"split_conditions":[1E0,1E0,8.23451E-2,9.8E1,9.5E1,7.25E1,4.2E1,9.6E1,6.3E1,-1.0168214E-1,-1.0481402E-2,-1.2279184E-1,6.2523864E-2,1.0267284E-2,7.751096E-2,-6.413287E-2,1.0586008E-1],"split_indices":[4,0,0,11,11,8,1,10,1,0,0,0,0,0,0,0,0],"split_type":[0,0,0,0,0,0,0,0,0,0,0,0,0,0,0,0,0],"sum_hessian":[3.7650912E2,3.7271762E2,3.7915018E0,1.8948898E2,1.8322864E2,1.6888496E2,2.0604013E1,1.5855737E2,2.4671265E1,9.613031E0,1.5927194E2,1.6925911E0,1.8911423E1,1.466849E2,1.1872466E1,2.1010872E1,3.660393E0],"tree_param":{"num_deleted":"0","num_feature":"12","num_nodes":"17","size_leaf_vector":"1"}},{"base_weights":[3.566554E-3,-2.2775972E-2,3.1188813E-1,-4.408441E-2,4.3048936E-1,6.0727555E-1,-3.6009006E-2,-3.0243082E-2,-9.250966E-1,1.1466987E0,-1.1952167E-1,8.936949E-1,1.7749067E-1,-1.11455016E-1,2.010204E-1,-5.500877E-3,3.68029E-2,-1.398696E-1,2.225303E-2,4.1822987E-3,1.3486521E-1,-7.659044E-2,5.379842E-2,9.882008E-2,5.1548076E-3,-8.406868E-2,7.2611354E-2,-4.362124E-2,4.3369498E-2],"categories":[],"categories_nodes":[],"categories_segments":[],"categories_sizes":[],"default_left":[0,0,0,0,0,0,0,0,0,0,0,0,0,0,0,0,0,0,0,0,0,0,0,0,0,0,0,0,0],"id":56,"left_children":[1,3,5,7,9,11,13,15,17,19,21,23,25,-1,27,-1,-1,-1,-1,-1,-1,-1,-1,-1,-1,-1,-1,-1,-1],"loss_changes":[3.0636985E0,3.3766725E0,3.0730217E0,4.0320635E0,6.3225327E0,1.8248863E0,3.9507556E0,3.26363E0,3.091918E0,1.4865656E0,4.571624E0,6.98895E-1,4.906971E0,0E0,2.0867643E0,0E0,0E0,0E0,0E0,0E0,0E0,0E0,0E0,0E0,0E0,0E0,0E0,0E0,0E0],"parents":[2147483647,0,0,1,1,2,2,3,3,4,4,5,5,6,6,7,7,8,8,9,9,10,10,11,11,12,12,14,14],"right_children":[2,4,6,8,10,12,14,16,18,20,22,24,26,-1,28,-1,-1,-1,-1,-1,-1,-1,-1,-1,-1,-1,-1,-1,-1],"split_conditions":[9.8E1,1.15E2,1.02E2,1.08E2,1.19E2,2.35E2,1.025E2,4E1,1.485E2,1.265E2,1.45E2,3.096E1,2.61E2,-1.11455016E-1,1.485E2,-5.500877E-3,3.68029E-2,-1.398696E-1,2.225303E-2,4.1822987E-3,1.3486521E-1,-7.659044E-2,5.379842E-2,9.882008E-2,5.1548076E-3,-8.406868E-2,7.2611354E-2,-4.362124E-2,4.3369498E-2],"split_indices":[8,11,8,11,11,6,8,3,7,7,11,9,6,0,7,0,0,0,0,0,0,0,0,0,0,0,0,0,0],"split_type":[0,0,0,0,0,0,0,0,0,0,0,0,0,0,0,0,0,0,0,0,0,0,0,0,0,0,0,0,0],"sum_hessian":[3.7533667E2,3.466459E2,2.8690767E1,3.3194366E2,1.470225E1,1.51131525E1,1.3577615E1,3.2782758E2,4.1160765E0,5.9150143E0,8.787235E0,8.421473E0,6.69168E0,1.779284E0,1.1798331E1,3.0944714E2,1.838042E1,2.7588077E0,1.3572689E0,1.1006286E0,4.8143854E0,4.347964E0,4.4392715E0,7.415836E0,1.005637E0,2.1567168E0,4.534963E0,2.9217293E0,8.876602E0],"tree_param":{"num_deleted":"0","num_feature":"12","num_nodes":"29","size_leaf_vector":"1"}},{"base_weights":[3.4140022E-3,1.217646E-1,-3.093592E-3,-2.4987139E-2,3.7105048E-1,-8.36027E-2,1.6389307E-1,7.406646E-1,2.1718161E-2,-2.2314003E-2,5.5697584E-3,5.5824626E-2,3.1101122E-3,-1.4736423E-2,9.172216E-2,3.766915E-2,-8.3936505E-2],"categories":[],"categories_nodes":[],"categories_segments":[],"categories_sizes":[],